{"learner":{"attributes":{},"feature_names":[],"feature_types":[],"gradient_booster":{"model":{"gbtree_model_param":{"num_parallel_tree":"1","num_trees":"900"},"iteration_indptr":[0,1,2,3,4,5,6,7,8,9,10,11,12,13,14,15,16,17,18,19,20,21,22,23,24,25,26,27,28,29,30,31,32,33,34,35,36,37,38,39,40,41,42,43,44,45,46,47,48,49,50,51,52,53,54,55,56,57,58,59,60,61,62,63,64,65,66,67,68,69,70,71,72,73,74,75,76,77,78,79,80,81,82,83,84,85,86,87,88,89,90,91,92,93,94,95,96,97,98,99,100,101,102,103,104,105,106,107,108,109,110,111,112,113,114,115,116,117,118,119,120,121,122,123,124,125,126,127,128,129,130,131,132,133,134,135,136,137,138,139,140,141,142,143,144,145,146,147,148,149,150,151,152,153,154,155,156,157,158,159,160,161,162,163,164,165,166,167,168,169,170,171,172,173,174,175,176,177,178,179,180,181,182,183,184,185,186,187,188,189,190,191,192,193,194,195,196,197,198,199,200,201,202,203,204,205,206,207,208,209,210,211,212,213,214,215,216,217,218,219,220,221,222,223,224,225,226,227,228,229,230,231,232,233,234,235,236,237,238,239,240,241,242,243,244,245,246,247,248,249,250,251,252,253,254,255,256,257,258,259,260,261,262,263,264,265,266,267,268,269,270,271,272,273,274,275,276,277,278,279,280,281,282,283,284,285,286,287,288,289,290,291,292,293,294,295,296,297,298,299,300,301,302,303,304,305,306,307,308,309,310,311,312,313,314,315,316,317,318,319,320,321,322,323,324,325,326,327,328,329,330,331,332,333,334,335,336,337,338,339,340,341,342,343,344,345,346,347,348,349,350,351,352,353,354,355,356,357,358,359,360,361,362,363,364,365,366,367,368,369,370,371,372,373,374,375,376,377,378,379,380,381,382,383,384,385,386,387,388,389,390,391,392,393,394,395,396,397,398,399,400,401,402,403,404,405,406,407,408,409,410,411,412,413,414,415,416,417,418,419,420,421,422,423,424,425,426,427,428,429,430,431,432,433,434,435,436,437,438,439,440,441,442,443,444,445,446,447,448,449,450,451,452,453,454,455,456,457,458,459,460,461,462,463,464,465,466,467,468,469,470,471,472,473,474,475,476,477,478,479,480,481,482,483,484,485,486,487,488,489,490,491,492,493,494,495,496,497,498,499,500,501,502,503,504,505,506,507,508,509,510,511,512,513,514,515,516,517,518,519,520,521,522,523,524,525,526,527,528,529,530,531,532,533,534,535,536,537,538,539,540,541,542,543,544,545,546,547,548,549,550,551,552,553,554,555,556,557,558,559,560,561,562,563,564,565,566,567,568,569,570,571,572,573,574,575,576,577,578,579,580,581,582,583,584,585,586,587,588,589,590,591,592,593,594,595,596,597,598,599,600,601,602,603,604,605,606,607,608,609,610,611,612,613,614,615,616,617,618,619,620,621,622,623,624,625,626,627,628,629,630,631,632,633,634,635,636,637,638,639,640,641,642,643,644,645,646,647,648,649,650,651,652,653,654,655,656,657,658,659,660,661,662,663,664,665,666,667,668,669,670,671,672,673,674,675,676,677,678,679,680,681,682,683,684,685,686,687,688,689,690,691,692,693,694,695,696,697,698,699,700,701,702,703,704,705,706,707,708,709,710,711,712,713,714,715,716,717,718,719,720,721,722,723,724,725,726,727,728,729,730,731,732,733,734,735,736,737,738,739,740,741,742,743,744,745,746,747,748,749,750,751,752,753,754,755,756,757,758,759,760,761,762,763,764,765,766,767,768,769,770,771,772,773,774,775,776,777,778,779,780,781,782,783,784,785,786,787,788,789,790,791,792,793,794,795,796,797,798,799,800,801,802,803,804,805,806,807,808,809,810,811,812,813,814,815,816,817,818,819,820,821,822,823,824,825,826,827,828,829,830,831,832,833,834,835,836,837,838,839,840,841,842,843,844,845,846,847,848,849,850,851,852,853,854,855,856,857,858,859,860,861,862,863,864,865,866,867,868,869,870,871,872,873,874,875,876,877,878,879,880,881,882,883,884,885,886,887,888,889,890,891,892,893,894,895,896,897,898,899,900],"tree_info":[0,0,0,0,0,0,0,0,0,0,0,0,0,0,0,0,0,0,0,0,0,0,0,0,0,0,0,0,0,0,0,0,0,0,0,0,0,0,0,0,0,0,0,0,0,0,0,0,0,0,0,0,0,0,0,0,0,0,0,0,0,0,0,0,0,0,0,0,0,0,0,0,0,0,0,0,0,0,0,0,0,0,0,0,0,0,0,0,0,0,0,0,0,0,0,0,0,0,0,0,0,0,0,0,0,0,0,0,0,0,0,0,0,0,0,0,0,0,0,0,0,0,0,0,0,0,0,0,0,0,0,0,0,0,0,0,0,0,0,0,0,0,0,0,0,0,0,0,0,0,0,0,0,0,0,0,0,0,0,0,0,0,0,0,0,0,0,0,0,0,0,0,0,0,0,0,0,0,0,0,0,0,0,0,0,0,0,0,0,0,0,0,0,0,0,0,0,0,0,0,0,0,0,0,0,0,0,0,0,0,0,0,0,0,0,0,0,0,0,0,0,0,0,0,0,0,0,0,0,0,0,0,0,0,0,0,0,0,0,0,0,0,0,0,0,0,0,0,0,0,0,0,0,0,0,0,0,0,0,0,0,0,0,0,0,0,0,0,0,0,0,0,0,0,0,0,0,0,0,0,0,0,0,0,0,0,0,0,0,0,0,0,0,0,0,0,0,0,0,0,0,0,0,0,0,0,0,0,0,0,0,0,0,0,0,0,0,0,0,0,0,0,0,0,0,0,0,0,0,0,0,0,0,0,0,0,0,0,0,0,0,0,0,0,0,0,0,0,0,0,0,0,0,0,0,0,0,0,0,0,0,0,0,0,0,0,0,0,0,0,0,0,0,0,0,0,0,0,0,0,0,0,0,0,0,0,0,0,0,0,0,0,0,0,0,0,0,0,0,0,0,0,0,0,0,0,0,0,0,0,0,0,0,0,0,0,0,0,0,0,0,0,0,0,0,0,0,0,0,0,0,0,0,0,0,0,0,0,0,0,0,0,0,0,0,0,0,0,0,0,0,0,0,0,0,0,0,0,0,0,0,0,0,0,0,0,0,0,0,0,0,0,0,0,0,0,0,0,0,0,0,0,0,0,0,0,0,0,0,0,0,0,0,0,0,0,0,0,0,0,0,0,0,0,0,0,0,0,0,0,0,0,0,0,0,0,0,0,0,0,0,0,0,0,0,0,0,0,0,0,0,0,0,0,0,0,0,0,0,0,0,0,0,0,0,0,0,0,0,0,0,0,0,0,0,0,0,0,0,0,0,0,0,0,0,0,0,0,0,0,0,0,0,0,0,0,0,0,0,0,0,0,0,0,0,0,0,0,0,0,0,0,0,0,0,0,0,0,0,0,0,0,0,0,0,0,0,0,0,0,0,0,0,0,0,0,0,0,0,0,0,0,0,0,0,0,0,0,0,0,0,0,0,0,0,0,0,0,0,0,0,0,0,0,0,0,0,0,0,0,0,0,0,0,0,0,0,0,0,0,0,0,0,0,0,0,0,0,0,0,0,0,0,0,0,0,0,0,0,0,0,0,0,0,0,0,0,0,0,0,0,0,0,0,0,0,0,0,0,0,0,0,0,0,0,0,0,0,0,0,0,0,0,0,0,0,0,0,0,0,0,0,0,0,0,0,0,0,0,0,0,0,0,0,0,0,0,0,0,0,0,0,0,0,0,0,0,0,0,0,0,0,0,0,0,0,0,0,0,0,0,0,0,0,0,0,0,0,0,0,0,0,0,0,0,0,0,0,0,0,0,0,0,0,0,0,0,0,0,0,0,0,0,0,0,0,0,0,0,0,0,0,0,0,0,0,0,0,0,0,0,0,0,0,0,0,0,0,0,0,0,0,0,0,0,0,0,0,0,0,0,0,0,0,0,0,0,0,0,0,0,0,0,0,0,0,0,0,0,0,0,0,0,0,0,0,0,0,0,0,0,0,0,0,0,0,0,0,0,0,0,0,0,0,0,0,0,0,0,0,0,0,0,0,0,0,0,0,0,0,0,0,0,0,0,0,0,0,0,0],"trees":[{"base_weights":[-1.4849051E1,1.9393506E3,-2.8522102E3,3.9615593E3,9.961224E2,-4.5059756E3,-1.6046895E3,5.3799683E3,3.308607E3,2.106151E2,3.6891052E3,-3.8324822E3,-5.0291353E3,-1.8076586E3,6.397722E2,8.72602E2,5.817748E3,3.6212048E3,2.5503958E2,-2.4066062E3,7.240182E2,3.0790715E3,1.0430007E4,-3.881398E3,2.962601E2,-5.057527E3,1.0126011E3,-1.8967853E3,1.0081269E3,2.6090461E3,8.282014E1,7.544375E3,4.8322275E3,3.8361184E3,-1.0738123E3,1.0878972E3,-1.4491795E2,-2.7342275E3,3.3105533E2,1.059992E3,-2.5148325E3,3.437897E3,-1.4677495E3,1.0558489E3,1.8914008E2,-4.199828E2,-3.9773608E3,-1.45957E3,-5.0881543E3,-9.072659E1,2.2580675E2,-1.1191294E3,-2.997711E3,3.1381516E3,-5.4059933E1,6.5535486E2,-1.3309984E2,7.7949614E3,-1.3387871E2,7.274187E3,4.3444897E3,4.06567E3,3.600336E2,4.2134766E1,-1.2633981E3,1.2915519E3,3.1128727E1,-2.1071223E2,4.653213E1,1.1125752E3,-2.9684678E3,1.3782747E3,-2.0388383E2,9.6344165E2,7.778884E2,-2.638689E3,2.612601E2,4.8836484E3,2.580853E3,3.0761719E1,-1.949814E2,-1.1863315E3,2.9247342E2,-4.0214207E3,2.2626012E2,-7.393262E0,-1.6655319E2,-5.103519E3,-6.613989E2,-9.517117E2,-3.762733E3,-3.0338489E3,4.7580673E2,5.8067384E0,3.5612875E2,1.3444016E3,3.4892666E1,7.9206484E3,1.0376011E2,-8.072659E1,4.376011E1,9.228482E3,1.3146017E3,4.4661665E3,-1.655319E2,1.0000062E3,4.345949E3,1.4146017E3,3.0576204E1,-2.7387873E1,5.414007E1,-5.3219855E2,-1.3563182E2,1.5607617E3,6.3190163E1,-2.4697844E2,4.2473404E1,2.1007617E3,-6.1671277E2,-3.0281284E3,3.4247342E2,7.4027814E2,4.924734E2,1.5353909E3,3.6967506E1,-2.8043318E3,-6.1133154E2,5.1276123E3,9.3489264E2,-2.0988267E3,2.828213E3,1.853213E1,-8.814132E1,-1.3192892E3,9.140072E0,-4.0468691E3,1.924734E2,-5.112885E3,-1.7393263E1,-2.1405994E2,1.2580674E2,-7.567222E2,-3.580648E2,-3.9201416E3,7.914007E1,-1.7374202E3,-3.2818215E3,3.504681E1,2.1626012E2,4.4440163E1,-6.3387875E1,7.983364E2,7.580674E1,9.5417596E2,1.09140076E2,1.9444017E2,-1.2405993E2,4.7021774E2,1.6992418E2,-3.6139893E1,1.1260108E1,3.69775E2,-1.3720721E2,6.2826807E2,3.761473E2,9.140072E0,1.5569017E2,-2.1205694E1,2.8467688E1,-6.938787E1,9.140072E0,1.6701573E2,1.9140072E1,-2.83019E1,1.2532129E1,-3.5387875E1,3.2541443E2,-1.18219864E2,9.247341E1,-2.3846614E2,-3.838118E2,1.4898463E2,-2.2538786E2,1.3602296E2,5.2321295E2,-1.4745577E1,5.552575E2,-2.8594244E2,1.1580674E2,-2.2939833E1,-1.0538787E2,5.390889E2,1.10762E2,1.0590462E2,1.8760107E1,-9.050984E1,-2.7675986E2,3.08341E2,-9.4205696E1,-1.4886523E1,9.140072E0,-1.4088383E2,-1.4059929E1,-4.1291412E2,-1.6331981E2,-5.120239E2,-5.0726597E1,-8.332104E1,2.3525752E2,-4.0523764E2,-7.363989E1,-1.8688405E2,2.9247342E2,-3.1391245E2,-4.885881E2],"categories":[],"categories_nodes":[],"categories_segments":[],"categories_sizes":[],"default_left":[0,0,0,0,0,0,0,0,0,0,0,0,0,0,0,0,0,0,0,0,0,0,0,0,0,0,0,0,0,0,0,0,0,0,0,0,0,0,0,0,0,0,0,0,0,0,0,0,0,0,0,0,0,0,0,0,0,0,0,0,0,0,0,0,0,0,0,0,0,0,0,0,0,0,0,0,0,0,0,0,0,0,0,0,0,0,0,0,0,0,0,0,0,0,0,0,0,0,0,0,0,0,0,0,0,0,0,0,0,0,0,0,0,0,0,0,0,0,0,0,0,0,0,0,0,0,0,0,0,0,0,0,0,0,0,0,0,0,0,0,0,0,0,0,0,0,0,0,0,0,0,0,0,0,0,0,0,0,0,0,0,0,0,0,0,0,0,0,0,0,0,0,0,0,0,0,0,0,0,0,0,0,0,0,0,0,0,0,0,0,0,0,0,0,0,0,0,0,0,0,0,0,0,0,0,0,0,0,0,0,0,0,0,0,0],"id":0,"left_children":[1,3,5,7,9,11,13,15,17,19,21,23,25,27,-1,29,31,33,35,37,39,41,43,45,-1,47,49,51,-1,53,55,57,59,61,63,65,67,69,71,73,75,77,79,-1,-1,81,83,85,87,-1,-1,89,91,93,-1,95,-1,97,99,101,103,105,107,109,111,113,-1,115,-1,117,119,121,-1,123,-1,125,-1,127,129,131,-1,133,-1,135,-1,-1,-1,137,139,141,143,145,-1,-1,-1,147,149,151,-1,-1,-1,153,155,157,159,161,163,165,167,-1,-1,169,-1,171,-1,173,-1,175,177,179,-1,181,-1,183,185,187,189,191,193,195,197,-1,199,201,-1,203,-1,205,-1,-1,-1,207,-1,209,-1,211,213,-1,-1,-1,-1,-1,-1,-1,-1,-1,-1,-1,-1,-1,-1,-1,-1,-1,-1,-1,-1,-1,-1,-1,-1,-1,-1,-1,-1,-1,-1,-1,-1,-1,-1,-1,-1,-1,-1,-1,-1,-1,-1,-1,-1,-1,-1,-1,-1,-1,-1,-1,-1,-1,-1,-1,-1,-1,-1,-1,-1,-1,-1,-1,-1,-1,-1,-1,-1],"loss_changes":[2.8428014E10,5.7829775E9,4.299482E9,8.581192E8,4.3835745E9,2.7783987E8,1.9640901E9,5.837773E8,6.338678E8,2.1627907E9,1.8602419E9,1.5628595E8,9.58464E7,1.2748055E9,0E0,3.93334E7,3.9330816E8,6.176942E8,2.1636088E7,2.3860109E8,1.4689157E9,7.149107E8,1.722368E6,1.2918579E8,0E0,3.9901184E7,1.3664556E7,9.8640614E8,0E0,1.839662E7,1.9551326E7,1.8681242E8,1.5115802E8,4.5827328E8,6.032802E6,2.514072E6,2.00235E6,2.1926298E8,8.007279E7,7.7642125E8,9.444115E7,4.716452E8,2.3962312E7,0E0,0E0,4.0257788E7,1.2487526E8,1.747967E6,2.6701824E7,0E0,0E0,2.951148E8,1.6312013E8,1.0005512E7,0E0,7.1713885E6,0E0,6.2531584E7,2.6313962E6,2.9017856E8,8.654566E7,4.570071E8,1.3113142E7,1.24374E6,1.832E5,8.6447E5,0E0,1.1773444E6,0E0,2.8226986E7,1.057975E8,4.247516E7,0E0,6.384083E8,0E0,3.854157E7,0E0,1.3201357E8,3.082098E8,2.1663933E5,0E0,2.282234E6,0E0,7.399219E7,0E0,0E0,0E0,2.083328E7,1.6744902E7,3.2520877E8,3.488544E7,1.4225306E8,0E0,0E0,0E0,4.985016E6,3.575561E6,2.875648E7,0E0,0E0,0E0,3.0134272E7,1.9309242E7,8.261376E7,4.0874788E5,3.1731626E8,5.1417498E8,1.406724E6,2.0321312E6,0E0,0E0,7.329889E5,0E0,8.54956E5,0E0,6.213855E5,0E0,3.0620348E7,8.288618E6,9.738918E7,0E0,5.384515E7,0E0,4.681596E8,4.715977E8,3.173056E7,1.542199E6,1.3409997E8,6.20717E5,6.1594E6,2.4058163E8,0E0,1.0364516E5,7.61794E5,0E0,6.295347E7,0E0,1.1358208E7,0E0,0E0,0E0,1.4732554E8,0E0,1.0441216E7,0E0,6.055843E7,6.063872E7,0E0,0E0,0E0,0E0,0E0,0E0,0E0,0E0,0E0,0E0,0E0,0E0,0E0,0E0,0E0,0E0,0E0,0E0,0E0,0E0,0E0,0E0,0E0,0E0,0E0,0E0,0E0,0E0,0E0,0E0,0E0,0E0,0E0,0E0,0E0,0E0,0E0,0E0,0E0,0E0,0E0,0E0,0E0,0E0,0E0,0E0,0E0,0E0,0E0,0E0,0E0,0E0,0E0,0E0,0E0,0E0,0E0,0E0,0E0,0E0,0E0,0E0,0E0,0E0,0E0,0E0,0E0,0E0],"parents":[2147483647,0,0,1,1,2,2,3,3,4,4,5,5,6,6,7,7,8,8,9,9,10,10,11,11,12,12,13,13,15,15,16,16,17,17,18,18,19,19,20,20,21,21,22,22,23,23,25,25,26,26,27,27,29,29,30,30,31,31,32,32,33,33,34,34,35,35,36,36,37,37,38,38,39,39,40,40,41,41,42,42,45,45,46,46,47,47,48,48,51,51,52,52,53,53,55,55,57,57,58,58,59,59,60,60,61,61,62,62,63,63,64,64,65,65,67,67,69,69,70,70,71,71,73,73,75,75,77,77,78,78,79,79,81,81,83,83,87,87,88,88,89,89,90,90,91,91,95,95,96,96,97,97,101,101,102,102,103,103,104,104,105,105,106,106,107,107,108,108,111,111,113,113,115,115,117,117,118,118,119,119,121,121,123,123,124,124,125,125,126,126,127,127,128,128,129,129,130,130,132,132,133,133,135,135,137,137,141,141,143,143,145,145,146,146],"right_children":[2,4,6,8,10,12,14,16,18,20,22,24,26,28,-1,30,32,34,36,38,40,42,44,46,-1,48,50,52,-1,54,56,58,60,62,64,66,68,70,72,74,76,78,80,-1,-1,82,84,86,88,-1,-1,90,92,94,-1,96,-1,98,100,102,104,106,108,110,112,114,-1,116,-1,118,120,122,-1,124,-1,126,-1,128,130,132,-1,134,-1,136,-1,-1,-1,138,140,142,144,146,-1,-1,-1,148,150,152,-1,-1,-1,154,156,158,160,162,164,166,168,-1,-1,170,-1,172,-1,174,-1,176,178,180,-1,182,-1,184,186,188,190,192,194,196,198,-1,200,202,-1,204,-1,206,-1,-1,-1,208,-1,210,-1,212,214,-1,-1,-1,-1,-1,-1,-1,-1,-1,-1,-1,-1,-1,-1,-1,-1,-1,-1,-1,-1,-1,-1,-1,-1,-1,-1,-1,-1,-1,-1,-1,-1,-1,-1,-1,-1,-1,-1,-1,-1,-1,-1,-1,-1,-1,-1,-1,-1,-1,-1,-1,-1,-1,-1,-1,-1,-1,-1,-1,-1,-1,-1,-1,-1,-1,-1,-1,-1],"split_conditions":[2.7314767E-1,-8.317117E-1,3E0,-1.3841413E0,1E0,1.1938639E0,1E0,3E0,1E0,3E0,1E0,1E0,1E0,1E0,6.397722E2,2E0,-1.4263225E0,1E0,-1.1999981E0,1E0,1E0,1E0,1.6163394E0,1E0,2.962601E2,1E0,-1.5282581E0,8.255774E-1,1.0081269E3,1E0,-1.5457329E0,1E0,1E0,1E0,-1.455447E0,1E0,1E0,1E0,8.900446E-2,1E0,1E0,-2.79282E-1,-9.513877E-2,1.0558489E3,1.8914008E2,1E0,1E0,-1.5282581E0,1E0,-9.072659E1,2.2580675E2,1E0,1E0,-1.5682846E0,-5.4059933E1,-2.0524986E0,-1.3309984E2,1E0,-1.7524278E0,1E0,1E0,3E0,-1.1999981E0,1E0,-1.1999981E0,1E0,3.1128727E1,1E0,4.653213E1,3.5492977E-1,1E0,1.0817308E0,-2.0388383E2,-9.513877E-2,7.778884E2,1E0,2.612601E2,1E0,3E0,-2.79282E-1,-1.949814E2,1E0,2.9247342E2,1E0,2.2626012E2,-7.393262E0,-1.6655319E2,1E0,-1.1787646E0,1E0,1E0,-5.81713E-1,4.7580673E2,5.8067384E0,3.5612875E2,1E0,1E0,1E0,1.0376011E2,-8.072659E1,4.376011E1,1.3183637E-1,1E0,1E0,-8.438332E-1,2E0,1E0,-1.6738805E0,-6.545242E-1,-2.7387873E1,5.414007E1,1E0,-1.3563182E2,2.774587E-1,6.3190163E1,4.958922E-1,4.2473404E1,-9.894555E-1,8.096209E-1,1E0,3.4247342E2,7.7694327E-1,4.924734E2,1E0,1E0,1E0,-4.6342522E-1,1E0,-4.6342522E-1,2E0,1E0,1.853213E1,-2.3221944E-1,1E0,9.140072E0,1E0,1.924734E2,1E0,-1.7393263E1,-2.1405994E2,1.2580674E2,1E0,-3.580648E2,1E0,7.914007E1,1E0,1E0,3.504681E1,2.1626012E2,4.4440163E1,-6.3387875E1,7.983364E2,7.580674E1,9.5417596E2,1.09140076E2,1.9444017E2,-1.2405993E2,4.7021774E2,1.6992418E2,-3.6139893E1,1.1260108E1,3.69775E2,-1.3720721E2,6.2826807E2,3.761473E2,9.140072E0,1.5569017E2,-2.1205694E1,2.8467688E1,-6.938787E1,9.140072E0,1.6701573E2,1.9140072E1,-2.83019E1,1.2532129E1,-3.5387875E1,3.2541443E2,-1.18219864E2,9.247341E1,-2.3846614E2,-3.838118E2,1.4898463E2,-2.2538786E2,1.3602296E2,5.2321295E2,-1.4745577E1,5.552575E2,-2.8594244E2,1.1580674E2,-2.2939833E1,-1.0538787E2,5.390889E2,1.10762E2,1.0590462E2,1.8760107E1,-9.050984E1,-2.7675986E2,3.08341E2,-9.4205696E1,-1.4886523E1,9.140072E0,-1.4088383E2,-1.4059929E1,-4.1291412E2,-1.6331981E2,-5.120239E2,-5.0726597E1,-8.332104E1,2.3525752E2,-4.0523764E2,-7.363989E1,-1.8688405E2,2.9247342E2,-3.1391245E2,-4.885881E2],"split_indices":[1,1,536,1,512,1,199,536,129,536,199,443,102,291,0,536,0,94,1,510,508,373,0,536,0,536,0,1,0,371,0,94,513,134,0,533,508,536,1,308,145,1,1,0,0,199,314,0,466,0,0,508,393,1,0,0,0,179,1,508,94,536,1,534,1,534,0,532,0,0,303,0,0,1,0,247,0,338,536,1,0,30,0,445,0,0,0,444,0,367,318,0,0,0,0,512,377,133,0,0,0,0,341,533,0,536,513,0,0,0,0,533,0,0,0,0,0,0,0,513,0,0,0,283,270,137,1,113,1,536,186,0,0,339,0,514,0,464,0,0,0,210,0,147,0,260,508,0,0,0,0,0,0,0,0,0,0,0,0,0,0,0,0,0,0,0,0,0,0,0,0,0,0,0,0,0,0,0,0,0,0,0,0,0,0,0,0,0,0,0,0,0,0,0,0,0,0,0,0,0,0,0,0,0,0,0,0,0,0,0,0,0,0,0,0],"split_type":[0,0,0,0,0,0,0,0,0,0,0,0,0,0,0,0,0,0,0,0,0,0,0,0,0,0,0,0,0,0,0,0,0,0,0,0,0,0,0,0,0,0,0,0,0,0,0,0,0,0,0,0,0,0,0,0,0,0,0,0,0,0,0,0,0,0,0,0,0,0,0,0,0,0,0,0,0,0,0,0,0,0,0,0,0,0,0,0,0,0,0,0,0,0,0,0,0,0,0,0,0,0,0,0,0,0,0,0,0,0,0,0,0,0,0,0,0,0,0,0,0,0,0,0,0,0,0,0,0,0,0,0,0,0,0,0,0,0,0,0,0,0,0,0,0,0,0,0,0,0,0,0,0,0,0,0,0,0,0,0,0,0,0,0,0,0,0,0,0,0,0,0,0,0,0,0,0,0,0,0,0,0,0,0,0,0,0,0,0,0,0,0,0,0,0,0,0,0,0,0,0,0,0,0,0,0,0,0,0,0,0,0,0,0,0],"sum_hessian":[5.123E3,3.034E3,2.089E3,9.63E2,2.071E3,8.96E2,1.193E3,2.99E2,6.64E2,1.605E3,4.66E2,3.99E2,4.97E2,1.165E3,2.8E1,2.7E1,2.72E2,6.02E2,6.2E1,2.62E2,1.343E3,4.3E2,3.6E1,3.97E2,2E0,4.95E2,2E0,1.158E3,7E0,7E0,2E1,9.4E1,1.78E2,5.76E2,2.6E1,1.9E1,4.3E1,2.34E2,2.8E1,1.218E3,1.25E2,3.99E2,3.1E1,3.5E1,1E0,1.1E1,3.86E2,5E0,4.9E2,1E0,1E0,6.81E2,4.77E2,6E0,1E0,1.5E1,5E0,9.1E1,3E0,2.5E1,1.53E2,5.4E2,3.6E1,4E0,2.2E1,1.4E1,5E0,4E1,3E0,1.3E1,2.21E2,2E1,8E0,1.203E3,1.5E1,1.23E2,2E0,1.45E2,2.54E2,8E0,2.3E1,1E1,1E0,3.84E2,2E0,1E0,4E0,4.88E2,2E0,6.43E2,3.8E1,4.76E2,1E0,1E0,5E0,6E0,9E0,8.9E1,2E0,1E0,2E0,1.8E1,7E0,1.49E2,4E0,4.6E1,4.94E2,7E0,2.9E1,3E0,1E0,4E0,1.8E1,8E0,6E0,3.9E1,1E0,8E0,5E0,2.2E2,1E0,1.9E1,1E0,7.43E2,4.6E2,1.13E2,1E1,1.36E2,9E0,1.2E1,2.42E2,3E0,5E0,9E0,1E0,3.83E2,1E0,4.87E2,1E0,1E0,1E0,6.01E2,4.2E1,3.7E1,1E0,7.9E1,3.97E2,4E0,2E0,6E0,3E0,8.8E1,1E0,1.7E1,1E0,6E0,1E0,1.36E2,1.3E1,2E0,2E0,2.1E1,2.5E1,1.1E2,3.84E2,1E0,6E0,1.5E1,1.4E1,3E0,1E0,7E0,1E0,3.6E1,3E0,3E0,5E0,4E0,1E0,1.27E2,9.3E1,1.6E1,3E0,7.12E2,3.1E1,4.47E2,1.3E1,1.12E2,1E0,7E0,3E0,1.27E2,9E0,7E0,2E0,6E0,6E0,2.27E2,1.5E1,4E0,1E0,8E0,1E0,3.69E2,1.4E1,4.86E2,1E0,5.88E2,1.3E1,3.5E1,2E0,7.8E1,1E0,3.7E2,2.7E1],"tree_param":{"num_deleted":"0","num_feature":"537","num_nodes":"215","size_leaf_vector":"1"}},{"base_weights":[-1.3845065E0,1.763839E3,-2.6095608E3,3.502535E3,9.4000336E2,-4.123325E3,-1.4552212E3,5.0123384E3,2.8438591E3,2.5464171E2,3.2708853E3,-3.6034263E3,-4.5615625E3,-1.6126823E3,5.718166E2,4.3620093E3,8.313549E2,3.0183862E3,-9.661635E2,-2.1438186E3,7.42119E2,2.7943691E3,9.315177E2,-3.6320688E3,2.827243E2,-4.581998E3,1.7620753E2,-1.1292246E3,-3.071962E3,1.1321772E3,4.7361904E3,3.3067686E3,3.8503E2,-3.8377075E2,-1.3763833E3,-2.2305298E3,4.845629E2,9.2507184E2,-3.446865E2,4.548677E3,1.796878E3,-3.656088E3,2.1593143E2,-4.6033545E3,2.7129785E2,-9.2702637E2,-2.586236E3,-3.1280803E3,4.362705E2,2.315959E3,-1.1901544E2,7.8341484E3,4.0304087E3,3.446146E3,-1.0796882E3,1.1894391E3,-5.1358696E1,-5.8429474E2,4.070145E1,-2.1747005E1,-1.4188524E2,-2.3382651E3,3.3427788E3,8.134403E2,7.320589E3,4.7548433E3,8.913609E2,2.1379219E3,-1.5104154E3,-3.7245386E3,-1.4577407E3,-4.614946E3,-9.160357E1,-1.6813477E1,5.3053192E1,-9.6114417E2,6.129262E2,-3.1585227E3,-9.25809E2,-3.3141306E3,-1.6867595E3,1.2108967E3,3.569587E2,1.9099205E2,-5.0906726E2,8.127325E3,-1.199246E2,4.564246E3,2.406878E3,3.6306018E3,4.4681033E2,-1.24708984E2,-1.4710066E2,1.416241E2,7.264304E2,4.361133E1,-1.1859952E2,-2.7261914E2,-7.528181E1,5.233542E1,-2.1385872E2,-2.086922E3,-4.9703506E2,3.708401E2,5.0422283E1,7.2152563E2,7.9671497E2,7.67363E2,1.8945894E2,4.884584E3,-8.4244795E0,1.01000946E2,1.7822119E1,-2.2017996E3,2.3831719E3,-9.611816E0,-1.759665E2,-3.740582E3,9.290388E1,5.253973E2,-1.9963722E2,-4.621661E3,-4.6992466E1,-8.517111E2,-3.0918826E2,-3.2293745E3,7.650208E1,-1.190846E3,8.753138E2,-1.7644468E3,-3.4989963E3,-2.737896E3,4.310927E2,2.0755379E2,1.23519535E1,-8.8665215E1,9.721172E1,8.339051E2,2.658724E0,4.77325E2,-7.738257E0,-1.6305739E2,2.5528902E2,1.3406645E2,3.8400705E2,1.2408645E2,1.3123313E1,-3.7956722E1,1.7963282E1,1.9228926E1,8.615243E1,1.0733674E1,-2.521446E1,-3.6256607E1,8.835417E0,-4.5080338E1,1.3451563E0,-1.0608362E2,-2.6644547E2,1.3016621E2,-1.8082525E1,5.0212265E2,-0E0,-1.30943365E1,1.1780664E1,-8.372161E1,-2.925252E2,2.60888E2,-7.906376E1,-1.689704E1,8.944804E0,-3.7926437E2,-1.7409047E2,-3.5473904E1,1.3493141E2,-4.628276E2,-4.903571E1,-9.002456E1,3.2794067E2,-3.293702E2,5.5250763E1,-5.967503E1,-1.9463031E2,1.3042615E2,-2.7949234E1,-2.1060527E2,2.827243E2,-3.5231628E2,6.293716E1,-3.1756448E2,2.5886917E2,1.5786322E2,-2.2655313E2],"categories":[],"categories_nodes":[],"categories_segments":[],"categories_sizes":[],"default_left":[0,0,0,0,0,0,0,0,0,0,0,0,0,0,0,0,0,0,0,0,0,0,0,0,0,0,0,0,0,0,0,0,0,0,0,0,0,0,0,0,0,0,0,0,0,0,0,0,0,0,0,0,0,0,0,0,0,0,0,0,0,0,0,0,0,0,0,0,0,0,0,0,0,0,0,0,0,0,0,0,0,0,0,0,0,0,0,0,0,0,0,0,0,0,0,0,0,0,0,0,0,0,0,0,0,0,0,0,0,0,0,0,0,0,0,0,0,0,0,0,0,0,0,0,0,0,0,0,0,0,0,0,0,0,0,0,0,0,0,0,0,0,0,0,0,0,0,0,0,0,0,0,0,0,0,0,0,0,0,0,0,0,0,0,0,0,0,0,0,0,0,0,0,0,0,0,0,0,0,0,0,0,0,0,0,0,0,0,0,0,0,0,0],"id":1,"left_children":[1,3,5,7,9,11,13,15,17,19,21,23,25,27,-1,29,-1,31,33,35,37,39,-1,41,-1,43,-1,45,47,49,51,53,55,57,59,61,-1,63,-1,65,67,69,-1,71,73,75,77,79,-1,81,83,85,87,89,91,93,95,97,99,-1,-1,101,103,105,107,109,111,113,115,117,119,121,-1,-1,-1,123,-1,125,127,129,131,133,-1,-1,135,137,-1,139,141,143,145,147,-1,-1,149,-1,151,153,-1,-1,155,157,-1,-1,-1,159,-1,-1,-1,161,163,-1,-1,165,167,169,-1,171,-1,173,-1,175,-1,177,-1,179,-1,181,183,185,187,189,191,-1,-1,-1,-1,-1,-1,-1,-1,-1,-1,-1,-1,-1,-1,-1,-1,-1,-1,-1,-1,-1,-1,-1,-1,-1,-1,-1,-1,-1,-1,-1,-1,-1,-1,-1,-1,-1,-1,-1,-1,-1,-1,-1,-1,-1,-1,-1,-1,-1,-1,-1,-1,-1,-1,-1,-1,-1,-1,-1,-1],"loss_changes":[2.3862606E10,4.420953E9,3.6435466E9,9.589842E8,3.353071E9,1.7307546E8,1.3625748E9,5.693614E8,4.6864333E8,1.9031209E9,1.3217725E9,9.845197E7,7.856845E7,8.156667E8,0E0,2.9623347E8,0E0,5.032156E8,6.585138E6,1.8827891E8,1.04252646E9,7.6234906E8,0E0,7.449344E7,0E0,5.246669E7,0E0,2.5415603E8,1.478679E8,4.35087E7,4.3315866E8,3.7426944E8,2.3994836E7,1.4105205E6,2.65536E5,1.7955123E8,0E0,9.140562E8,0E0,1.1215437E8,3.3017606E8,5.248256E7,0E0,1.2049408E7,6.347901E5,1.983495E8,9.486886E7,6.6039296E7,0E0,1.2125688E7,1.4603997E7,1.254423E8,1.4182144E8,3.1873587E8,7.103934E6,4.5838E5,1.6105994E6,1.6525425E5,1.0845158E6,0E0,0E0,1.5719898E8,2.478888E6,8.281525E8,1.3047424E7,9.340877E7,5.68356E5,2.8828147E8,1.0436724E7,3.734272E7,1.9191608E7,8.950784E6,0E0,0E0,0E0,1.7496826E8,0E0,2.6629248E7,1.640628E7,6.012211E7,8.473282E7,9.824966E6,0E0,0E0,1.0112781E7,6.642995E7,0E0,1.3656474E8,3.839251E7,2.525522E8,8.692645E6,7.572774E5,0E0,0E0,5.324795E5,0E0,1.3216708E6,2.9189603E5,0E0,0E0,3.361625E5,1.4189645E8,0E0,0E0,0E0,6.6163674E8,0E0,0E0,0E0,9.812173E7,1.23672445E5,0E0,0E0,9.902504E6,1.817847E8,1.2510341E5,0E0,2.9050368E7,0E0,4.5850935E6,0E0,8.485888E6,0E0,1.5386973E8,0E0,2.23776E7,0E0,9.789972E6,3.2078692E6,6.0532184E7,2.6788608E7,7.473538E7,5.0474256E7,0E0,0E0,0E0,0E0,0E0,0E0,0E0,0E0,0E0,0E0,0E0,0E0,0E0,0E0,0E0,0E0,0E0,0E0,0E0,0E0,0E0,0E0,0E0,0E0,0E0,0E0,0E0,0E0,0E0,0E0,0E0,0E0,0E0,0E0,0E0,0E0,0E0,0E0,0E0,0E0,0E0,0E0,0E0,0E0,0E0,0E0,0E0,0E0,0E0,0E0,0E0,0E0,0E0,0E0,0E0,0E0,0E0,0E0,0E0,0E0],"parents":[2147483647,0,0,1,1,2,2,3,3,4,4,5,5,6,6,7,7,8,8,9,9,10,10,11,11,12,12,13,13,15,15,17,17,18,18,19,19,20,20,21,21,23,23,25,25,27,27,28,28,29,29,30,30,31,31,32,32,33,33,34,34,35,35,37,37,39,39,40,40,41,41,43,43,44,44,45,45,46,46,47,47,49,49,50,50,51,51,52,52,53,53,54,54,55,55,56,56,57,57,58,58,61,61,62,62,63,63,64,64,65,65,66,66,67,67,68,68,69,69,70,70,71,71,75,75,77,77,78,78,79,79,80,80,81,81,84,84,85,85,87,87,88,88,89,89,90,90,91,91,94,94,96,96,97,97,100,100,101,101,105,105,109,109,110,110,113,113,114,114,115,115,117,117,119,119,121,121,123,123,125,125,127,127,128,128,129,129,130,130,131,131,132,132],"right_children":[2,4,6,8,10,12,14,16,18,20,22,24,26,28,-1,30,-1,32,34,36,38,40,-1,42,-1,44,-1,46,48,50,52,54,56,58,60,62,-1,64,-1,66,68,70,-1,72,74,76,78,80,-1,82,84,86,88,90,92,94,96,98,100,-1,-1,102,104,106,108,110,112,114,116,118,120,122,-1,-1,-1,124,-1,126,128,130,132,134,-1,-1,136,138,-1,140,142,144,146,148,-1,-1,150,-1,152,154,-1,-1,156,158,-1,-1,-1,160,-1,-1,-1,162,164,-1,-1,166,168,170,-1,172,-1,174,-1,176,-1,178,-1,180,-1,182,184,186,188,190,192,-1,-1,-1,-1,-1,-1,-1,-1,-1,-1,-1,-1,-1,-1,-1,-1,-1,-1,-1,-1,-1,-1,-1,-1,-1,-1,-1,-1,-1,-1,-1,-1,-1,-1,-1,-1,-1,-1,-1,-1,-1,-1,-1,-1,-1,-1,-1,-1,-1,-1,-1,-1,-1,-1,-1,-1,-1,-1,-1,-1],"split_conditions":[2.7314767E-1,-8.317117E-1,3E0,-1.3841413E0,1E0,1.1938639E0,1E0,1E0,1E0,3E0,1E0,1E0,1E0,1.1938639E0,5.718166E2,3E0,8.313549E2,1E0,-6.545242E-1,1E0,1E0,-2.79282E-1,9.315177E2,1E0,2.827243E2,1E0,1.7620753E2,1E0,1E0,1E0,1E0,1E0,-1.1999981E0,1E0,-1.1999981E0,1E0,4.845629E2,1E0,-3.446865E2,1E0,1E0,1E0,2.1593143E2,6.7181606E0,2.0898743E0,1E0,1E0,1E0,4.362705E2,-1.5682846E0,-2.1207142E0,1E0,-7.610615E-1,1E0,-1.1999981E0,-8.876655E-1,1E0,-1.0752271E0,-1.455447E0,-2.1747005E1,-1.4188524E2,1E0,1.2458471E0,1E0,8.453858E-1,1E0,-4.6342522E-1,3E0,-9.513877E-2,1E0,-1.1572158E-1,1E0,-9.160357E1,-1.6813477E1,5.3053192E1,1E0,6.129262E2,1E0,1E0,-9.2392546E-1,1.4334087E0,-1.8631895E0,3.569587E2,1.9099205E2,-7.127731E-1,1E0,-1.199246E2,1E0,-2.3048575E0,3E0,-1.1999981E0,8.8149674E-2,-1.4710066E2,1.416241E2,-5.525886E-1,4.361133E1,-1.015855E0,-1.3680736E0,-7.528181E1,5.233542E1,-1.3680736E0,-2.79282E-1,-4.9703506E2,3.708401E2,5.0422283E1,-9.513877E-2,7.9671497E2,7.67363E2,1.8945894E2,1E0,2E0,1.01000946E2,1.7822119E1,2E0,1E0,-1.2515757E0,-1.759665E2,1E0,9.290388E1,-2.6459128E-1,-1.9963722E2,1E0,-4.6992466E1,1E0,-3.0918826E2,1E0,7.650208E1,-1.3741931E-1,1.463986E-1,1E0,1E0,2.11458E0,1.5621502E0,2.0755379E2,1.23519535E1,-8.8665215E1,9.721172E1,8.339051E2,2.658724E0,4.77325E2,-7.738257E0,-1.6305739E2,2.5528902E2,1.3406645E2,3.8400705E2,1.2408645E2,1.3123313E1,-3.7956722E1,1.7963282E1,1.9228926E1,8.615243E1,1.0733674E1,-2.521446E1,-3.6256607E1,8.835417E0,-4.5080338E1,1.3451563E0,-1.0608362E2,-2.6644547E2,1.3016621E2,-1.8082525E1,5.0212265E2,-0E0,-1.30943365E1,1.1780664E1,-8.372161E1,-2.925252E2,2.60888E2,-7.906376E1,-1.689704E1,8.944804E0,-3.7926437E2,-1.7409047E2,-3.5473904E1,1.3493141E2,-4.628276E2,-4.903571E1,-9.002456E1,3.2794067E2,-3.293702E2,5.5250763E1,-5.967503E1,-1.9463031E2,1.3042615E2,-2.7949234E1,-2.1060527E2,2.827243E2,-3.5231628E2,6.293716E1,-3.1756448E2,2.5886917E2,1.5786322E2,-2.2655313E2],"split_indices":[1,1,536,1,512,1,199,430,94,536,199,199,290,1,0,536,0,129,0,303,369,1,0,443,0,444,0,517,261,534,513,179,1,534,1,511,0,310,0,338,373,514,0,1,0,511,510,512,0,1,1,341,0,134,1,0,513,0,0,0,0,471,0,308,0,362,1,536,1,51,0,88,0,0,0,367,0,318,318,0,0,0,0,0,0,356,0,94,1,536,1,0,0,0,0,0,1,0,0,0,0,1,0,0,0,1,0,0,0,494,536,0,0,536,186,0,0,512,0,0,0,464,0,270,0,438,0,0,0,260,167,1,1,0,0,0,0,0,0,0,0,0,0,0,0,0,0,0,0,0,0,0,0,0,0,0,0,0,0,0,0,0,0,0,0,0,0,0,0,0,0,0,0,0,0,0,0,0,0,0,0,0,0,0,0,0,0,0,0,0,0,0,0],"split_type":[0,0,0,0,0,0,0,0,0,0,0,0,0,0,0,0,0,0,0,0,0,0,0,0,0,0,0,0,0,0,0,0,0,0,0,0,0,0,0,0,0,0,0,0,0,0,0,0,0,0,0,0,0,0,0,0,0,0,0,0,0,0,0,0,0,0,0,0,0,0,0,0,0,0,0,0,0,0,0,0,0,0,0,0,0,0,0,0,0,0,0,0,0,0,0,0,0,0,0,0,0,0,0,0,0,0,0,0,0,0,0,0,0,0,0,0,0,0,0,0,0,0,0,0,0,0,0,0,0,0,0,0,0,0,0,0,0,0,0,0,0,0,0,0,0,0,0,0,0,0,0,0,0,0,0,0,0,0,0,0,0,0,0,0,0,0,0,0,0,0,0,0,0,0,0,0,0,0,0,0,0,0,0,0,0,0,0,0,0,0,0,0,0],"sum_hessian":[5.179E3,3.089E3,2.09E3,9.91E2,2.098E3,9.02E2,1.188E3,2.97E2,6.94E2,1.623E3,4.75E2,4.21E2,4.81E2,1.164E3,2.4E1,2.52E2,4.5E1,6.64E2,3E1,2.73E2,1.35E3,4.43E2,3.2E1,4.2E2,1E0,4.8E2,1E0,8.77E2,2.87E2,2.7E1,2.25E2,5.98E2,6.6E1,1.4E1,1.6E1,2.71E2,2E0,1.295E3,5.5E1,1.58E2,2.85E2,4.19E2,1E0,4.78E2,2E0,7.73E2,1.04E2,2.86E2,1E0,1.3E1,1.4E1,3.8E1,1.87E2,5.8E2,1.8E1,2.2E1,4.4E1,9E0,5E0,1E0,1.5E1,2.67E2,4E0,1.275E3,2E1,1.49E2,9E0,2.59E2,2.6E1,4.05E2,1.4E1,4.76E2,2E0,1E0,1E0,7.71E2,2E0,7.6E1,2.8E1,2.51E2,3.5E1,9E0,4E0,1E0,1.3E1,3.7E1,1E0,1.38E2,4.9E1,5.46E2,3.4E1,6E0,1.2E1,1.2E1,1E1,4E0,4E1,5E0,4E0,1E0,4E0,2.47E2,2E1,3E0,1E0,1.261E3,1.4E1,1.8E1,2E0,1.45E2,4E0,7E0,2E0,1.3E1,2.46E2,4E0,2.2E1,4.04E2,1E0,3E0,1.1E1,4.75E2,1E0,7.36E2,3.5E1,7.5E1,1E0,2.5E1,3E0,2.9E1,2.22E2,2.3E1,1.2E1,4E0,5E0,1.1E1,2E0,3.6E1,1E0,1.32E2,6E0,1E0,4.8E1,4.7E1,4.99E2,8E0,2.6E1,3E0,3E0,3E0,7E0,1.5E1,2.5E1,4E0,1E0,1E0,3E0,9.1E1,1.56E2,7.67E2,4.94E2,1.41E2,4E0,2E0,2E0,6E0,7E0,2.3E2,1.6E1,1E0,3E0,3.92E2,1.2E1,2E0,1E0,4.74E2,1E0,7.29E2,7E0,7.4E1,1E0,1.6E1,9E0,2E0,1E0,2.8E1,1E0,2.21E2,1E0,2.2E1,1E0,9E0,3E0],"tree_param":{"num_deleted":"0","num_feature":"537","num_nodes":"193","size_leaf_vector":"1"}},{"base_weights":[-1.4054476E1,1.5861704E3,-2.3626118E3,3.2781155E3,7.8469525E2,-3.697266E3,-1.3155221E3,5.0045264E3,2.8904177E3,1.8653082E2,2.9842485E3,-2.8753784E3,-3.9648855E3,-1.4970532E3,5.515219E2,4.314908E3,7.504072E3,2.6396475E3,5.652462E3,5.5050714E2,-2.4881797E3,2.5643843E3,8.282149E3,-2.9520881E3,1.8183595E2,-3.997213E3,3.357309E2,-1.5883634E3,9.248042E2,1.9541384E3,4.72792E3,7.818073E3,1.08252396E2,2.8057087E3,-7.1200146E2,5.789797E2,6.332253E3,4.2656143E2,6.832346E2,-2.5629036E3,2.4168883E2,3.6266326E3,1.0625696E3,8.4023627E2,1.5178484E2,-3.0771572E3,-5.7377966E2,-4.010511E3,1.7033395E2,-7.1464716E2,2.213333E2,-8.9002576E2,-2.561129E3,2.4122988E3,-1.6568526E2,6.562404E3,3.807359E3,8.045373E2,2.0901396E2,3.0648357E3,5.463158E2,8.0439835E1,-2.3764941E2,-1.2662911E2,2.931167E2,6.7363887E3,5.839512E1,-1.6517383E3,7.6773846E2,-2.6099993E3,2.2062508E2,1.8280846E2,3.8188496E3,7.5897894E2,5.4782513E2,-3.1200066E3,2.0873369E2,-1.793842E2,-6.9546106E2,-4.0318008E3,-2.5696753E2,1.3704077E2,-1.6802212E3,-9.543415E2,4.0383145E2,-2.6214688E3,4.1831232E2,2.7373389E3,-4.9981177E2,7.0575073E3,-1.17423E2,4.0860278E3,8.720687E2,2.9399944E3,7.8827495E3,1.1610502E3,-3.5045242E1,-1.1486964E3,4.6430682E2,7.1292007E3,1.2171563E2,-1.3228691E3,-4.3601935E2,6.8375476E2,7.467919E3,-2.3839797E3,-3.6518463E2,2.942526E2,-6.943059E2,3.9041511E3,-6.810093E1,5.352754E2,5.7189813E2,-3.1609185E3,1.9186064E2,1.5546013E1,-3.0893711E1,-4.10013E0,-7.5884515E2,-4.0574802E3,-1.7297726E3,3.3690186E1,-4.196415E1,-3.1315592E1,-1.8649095E2,-8.080624E2,-3.130468E3,-2.6537632E3,4.2172812E2,3.0077148E2,-8.893932E1,2.3913671E1,-9.062191E1,7.216278E2,4.9951336E1,4.3083224E2,1.424143E2,1.3781749E2,-1.8490723E1,2.8576828E2,9.425463E2,1.22064224E2,8.1840936E2,2.0621935E2,7.701697E1,1.3079552E1,-3.1064589E1,-1.5867029E2,4.9244762E1,6.738488E1,-1.3113579E2,7.331921E2,1.1314634E2,-1.4100838E2,4.8493912E2,6.2367214E1,8.5960175E2,8.5465814E2,3.0007324E2,-2.4180054E2,1.0760766E2,-1.5608647E1,-1.8267564E2,4.0371536E2,1.0934695E2,-5.432308E1,1.1311165E2,-3.212819E2,1.2086902E2,-8.247484E1,-7.653988E0,-1.0316791E2,-4.072507E2,-7.293842E1,-2.092742E2,-1.4320655E1,1.8879347E1,-6.505516E1,-2.9559363E2,-3.3080164E2,1.3231548E2,-1.3887375E2,-2.8592996E2],"categories":[],"categories_nodes":[],"categories_segments":[],"categories_sizes":[],"default_left":[0,0,0,0,0,0,0,0,0,0,0,0,0,0,0,0,0,0,0,0,0,0,0,0,0,0,0,0,0,0,0,0,0,0,0,0,0,0,0,0,0,0,0,0,0,0,0,0,0,0,0,0,0,0,0,0,0,0,0,0,0,0,0,0,0,0,0,0,0,0,0,0,0,0,0,0,0,0,0,0,0,0,0,0,0,0,0,0,0,0,0,0,0,0,0,0,0,0,0,0,0,0,0,0,0,0,0,0,0,0,0,0,0,0,0,0,0,0,0,0,0,0,0,0,0,0,0,0,0,0,0,0,0,0,0,0,0,0,0,0,0,0,0,0,0,0,0,0,0,0,0,0,0,0,0,0,0,0,0,0,0,0,0,0,0,0,0,0,0,0,0,0,0,0,0,0,0,0,0,0,0,0,0],"id":2,"left_children":[1,3,5,7,9,11,13,15,17,19,21,23,25,27,-1,29,31,33,35,37,39,41,43,45,-1,47,49,51,-1,53,55,57,-1,59,61,63,65,67,-1,69,-1,71,73,-1,-1,75,77,79,-1,81,-1,83,85,87,-1,89,91,-1,-1,93,95,97,-1,-1,-1,99,-1,101,103,105,-1,107,109,111,-1,113,-1,115,117,119,121,-1,123,125,-1,127,-1,129,131,133,-1,135,137,139,141,143,145,147,149,151,-1,153,-1,155,157,159,-1,-1,161,163,-1,165,-1,167,-1,-1,-1,-1,169,171,173,175,-1,-1,-1,177,179,181,-1,-1,-1,-1,-1,-1,-1,-1,-1,-1,-1,-1,-1,-1,-1,-1,-1,-1,-1,-1,-1,-1,-1,-1,-1,-1,-1,-1,-1,-1,-1,-1,-1,-1,-1,-1,-1,-1,-1,-1,-1,-1,-1,-1,-1,-1,-1,-1,-1,-1,-1,-1,-1,-1,-1],"loss_changes":[1.9493868E10,4.1782671E9,2.9278126E9,6.343547E8,2.7565763E9,1.802025E8,1.4809362E9,2.4376576E8,5.3395046E8,1.6090624E9,9.540324E8,9.499098E7,9.875968E7,1.1596324E9,0E0,1.2288742E8,5.564531E7,4.2143334E8,2.2028173E8,1.1262514E9,8.49609E7,6.5911885E8,4.9408E5,6.517312E7,0E0,6.567117E7,1.6971846E7,7.725747E8,0E0,4.935548E7,1.5603635E8,1.0614272E7,0E0,4.1525504E8,4.919039E7,5.0830976E7,1.2685722E8,1.0150837E9,0E0,5.554035E7,0E0,1.6011443E8,2.2761024E8,0E0,0E0,6.1490816E7,4.20609E5,5.2658176E7,0E0,1.6685445E7,0E0,2.1975443E8,2.1604198E8,2.4511504E7,0E0,1.621426E8,6.3209216E7,0E0,0E0,3.391739E8,2.7244708E7,1.3804596E7,0E0,0E0,0E0,9.970176E7,0E0,1.6837958E8,6.807741E8,2.8494336E7,0E0,4.039934E7,9.399194E7,1.7916323E8,0E0,5.7069696E7,0E0,3.5664212E5,3.50997E5,2.620928E7,3.1274212E5,0E0,9.0033E4,2.0566189E8,0E0,1.2706534E8,0E0,2.5946512E7,1.6360108E6,3.0259072E7,0E0,3.3871616E7,5.861474E6,2.8135066E8,1.0115264E7,9.850712E6,1.9555605E6,6.596747E6,9.951714E6,4.4184576E7,0E0,1.121801E8,0E0,5.668581E8,2.0963648E7,2.474976E7,0E0,0E0,7.349359E6,7.601971E7,0E0,1.0533425E8,0E0,5.6982784E7,0E0,0E0,0E0,0E0,2.7664E5,2.2140928E7,9.3574E5,1.6391314E5,0E0,0E0,0E0,2.0691606E8,4.117808E7,1.150336E8,0E0,0E0,0E0,0E0,0E0,0E0,0E0,0E0,0E0,0E0,0E0,0E0,0E0,0E0,0E0,0E0,0E0,0E0,0E0,0E0,0E0,0E0,0E0,0E0,0E0,0E0,0E0,0E0,0E0,0E0,0E0,0E0,0E0,0E0,0E0,0E0,0E0,0E0,0E0,0E0,0E0,0E0,0E0,0E0,0E0,0E0,0E0,0E0,0E0,0E0,0E0,0E0,0E0,0E0,0E0],"parents":[2147483647,0,0,1,1,2,2,3,3,4,4,5,5,6,6,7,7,8,8,9,9,10,10,11,11,12,12,13,13,15,15,16,16,17,17,18,18,19,19,20,20,21,21,22,22,23,23,25,25,26,26,27,27,29,29,30,30,31,31,33,33,34,34,35,35,36,36,37,37,39,39,41,41,42,42,45,45,46,46,47,47,49,49,51,51,52,52,53,53,55,55,56,56,59,59,60,60,61,61,65,65,67,67,68,68,69,69,71,71,72,72,73,73,75,75,77,77,78,78,79,79,80,80,82,82,83,83,85,85,87,87,88,88,89,89,91,91,92,92,93,93,94,94,95,95,96,96,97,97,98,98,99,99,101,101,103,103,104,104,105,105,108,108,109,109,111,111,113,113,118,118,119,119,120,120,121,121,125,125,126,126,127,127],"right_children":[2,4,6,8,10,12,14,16,18,20,22,24,26,28,-1,30,32,34,36,38,40,42,44,46,-1,48,50,52,-1,54,56,58,-1,60,62,64,66,68,-1,70,-1,72,74,-1,-1,76,78,80,-1,82,-1,84,86,88,-1,90,92,-1,-1,94,96,98,-1,-1,-1,100,-1,102,104,106,-1,108,110,112,-1,114,-1,116,118,120,122,-1,124,126,-1,128,-1,130,132,134,-1,136,138,140,142,144,146,148,150,152,-1,154,-1,156,158,160,-1,-1,162,164,-1,166,-1,168,-1,-1,-1,-1,170,172,174,176,-1,-1,-1,178,180,182,-1,-1,-1,-1,-1,-1,-1,-1,-1,-1,-1,-1,-1,-1,-1,-1,-1,-1,-1,-1,-1,-1,-1,-1,-1,-1,-1,-1,-1,-1,-1,-1,-1,-1,-1,-1,-1,-1,-1,-1,-1,-1,-1,-1,-1,-1,-1,-1,-1,-1,-1,-1,-1,-1,-1],"split_conditions":[2.7314767E-1,-8.317117E-1,3E0,-1.4263225E0,1E0,8.255774E-1,1E0,1E0,1E0,1E0,1E0,1E0,5.0608716E0,1E0,5.515219E2,3E0,-1.1999981E0,1E0,3E0,1E0,1E0,-9.513877E-2,1.6163394E0,1E0,1.8183595E2,1E0,-6.3996196E-1,8.255774E-1,9.248042E2,1E0,-1.7524278E0,1E0,1.08252396E2,1E0,-4.0696624E-1,-1.0283366E0,1E0,3E0,6.832346E2,1E0,2.4168883E2,3E0,1E0,8.4023627E2,1.5178484E2,1E0,4.5729092E-1,1E0,1.7033395E2,5.7974443E0,2.213333E2,1E0,1E0,-1.644756E0,-1.6568526E2,1E0,1E0,8.045373E2,2.0901396E2,1E0,-1.1999981E0,3E0,-2.3764941E2,-1.2662911E2,2.931167E2,2.4833423E-1,5.839512E1,1E0,1E0,1E0,2.2062508E2,-9.5800114E-1,1E0,1E0,5.4782513E2,1E0,2.0873369E2,1E0,-6.297684E-1,1E0,6.597173E-1,1.3704077E2,-2.0524986E0,1E0,4.0383145E2,1E0,4.1831232E2,1E0,-1.6010693E0,1E0,-1.17423E2,1E0,-1.1999981E0,1E0,-1.3971981E0,-1.5682846E0,-7.71886E-2,-5.125424E-1,1E0,1E0,1.2171563E2,1E0,-4.3601935E2,1E0,5.104544E-1,1E0,-3.6518463E2,2.942526E2,2E0,1.5589352E0,-6.810093E1,-1.3741931E-1,5.7189813E2,1E0,1.9186064E2,1.5546013E1,-3.0893711E1,-4.10013E0,1E0,1E0,5.893817E-1,7.358744E-2,-4.196415E1,-3.1315592E1,-1.8649095E2,1E0,1E0,-7.00104E-1,4.2172812E2,3.0077148E2,-8.893932E1,2.3913671E1,-9.062191E1,7.216278E2,4.9951336E1,4.3083224E2,1.424143E2,1.3781749E2,-1.8490723E1,2.8576828E2,9.425463E2,1.22064224E2,8.1840936E2,2.0621935E2,7.701697E1,1.3079552E1,-3.1064589E1,-1.5867029E2,4.9244762E1,6.738488E1,-1.3113579E2,7.331921E2,1.1314634E2,-1.4100838E2,4.8493912E2,6.2367214E1,8.5960175E2,8.5465814E2,3.0007324E2,-2.4180054E2,1.0760766E2,-1.5608647E1,-1.8267564E2,4.0371536E2,1.0934695E2,-5.432308E1,1.1311165E2,-3.212819E2,1.2086902E2,-8.247484E1,-7.653988E0,-1.0316791E2,-4.072507E2,-7.293842E1,-2.092742E2,-1.4320655E1,1.8879347E1,-6.505516E1,-2.9559363E2,-3.3080164E2,1.3231548E2,-1.3887375E2,-2.8592996E2],"split_indices":[1,1,536,0,512,1,199,430,512,508,199,314,1,291,0,536,1,508,536,310,145,1,0,100,0,290,0,1,0,478,1,529,0,129,0,0,351,536,0,194,0,536,421,0,0,443,1,319,0,1,0,445,208,0,0,363,533,0,0,506,1,536,0,0,0,0,0,471,308,517,0,0,90,445,0,445,0,514,0,100,0,0,0,508,0,261,0,397,0,71,0,95,1,33,0,1,0,0,490,186,0,314,0,199,0,137,0,0,536,0,0,0,0,318,0,0,0,0,507,536,0,0,0,0,0,367,394,0,0,0,0,0,0,0,0,0,0,0,0,0,0,0,0,0,0,0,0,0,0,0,0,0,0,0,0,0,0,0,0,0,0,0,0,0,0,0,0,0,0,0,0,0,0,0,0,0,0,0,0,0,0,0,0],"split_type":[0,0,0,0,0,0,0,0,0,0,0,0,0,0,0,0,0,0,0,0,0,0,0,0,0,0,0,0,0,0,0,0,0,0,0,0,0,0,0,0,0,0,0,0,0,0,0,0,0,0,0,0,0,0,0,0,0,0,0,0,0,0,0,0,0,0,0,0,0,0,0,0,0,0,0,0,0,0,0,0,0,0,0,0,0,0,0,0,0,0,0,0,0,0,0,0,0,0,0,0,0,0,0,0,0,0,0,0,0,0,0,0,0,0,0,0,0,0,0,0,0,0,0,0,0,0,0,0,0,0,0,0,0,0,0,0,0,0,0,0,0,0,0,0,0,0,0,0,0,0,0,0,0,0,0,0,0,0,0,0,0,0,0,0,0,0,0,0,0,0,0,0,0,0,0,0,0,0,0,0,0,0,0],"sum_hessian":[5.183E3,3.083E3,2.1E3,9.89E2,2.094E3,9.21E2,1.179E3,1.77E2,8.12E2,1.648E3,4.46E2,2.32E2,6.89E2,1.15E3,2.9E1,1.43E2,3.4E1,7.48E2,6.4E1,1.452E3,1.96E2,4.16E2,3E1,2.29E2,3E0,6.84E2,5E0,1.142E3,8E0,2.3E1,1.2E2,3.2E1,2E0,7.13E2,3.5E1,8E0,5.6E1,1.426E3,2.6E1,1.94E2,2E0,2.42E2,1.74E2,2.9E1,1E0,2.17E2,1.2E1,6.83E2,1E0,4E0,1E0,6.67E2,4.75E2,2.1E1,2E0,3.6E1,8.4E1,3E1,2E0,6.39E2,7.4E1,2.5E1,1E1,5E0,3E0,5.2E1,4E0,2E2,1.226E3,1.93E2,1E0,1.3E1,2.29E2,1.65E2,9E0,2.16E2,1E0,4E0,8E0,6.79E2,4E0,1E0,3E0,6.6E2,7E0,4.72E2,3E0,1.9E1,2E0,3.4E1,2E0,7.6E1,8E0,6.26E2,1.3E1,3.5E1,3.9E1,5E0,2E1,4.8E1,4E0,1.81E2,1.9E1,1.213E3,1.3E1,1.64E2,2.9E1,2E0,1.1E1,2.25E2,4E0,1.6E2,5E0,2.15E2,1E0,1E0,3E0,1E0,7E0,6.7E2,9E0,2E0,2E0,1E0,2E0,6.21E2,3.9E1,4.71E2,1E0,1.8E1,1E0,1E0,1E0,3.3E1,1E0,6.9E1,7E0,5E0,3E0,6.21E2,5E0,1E0,1.2E1,8E0,2.7E1,2.5E1,1.4E1,4E0,1E0,1.9E1,1E0,4.6E1,2E0,1.8E2,1E0,1.206E3,7E0,9E0,4E0,1.63E2,1E0,9E0,2E0,2.14E2,1.1E1,5.7E1,1.03E2,2.13E2,2E0,6E0,1E0,4E0,6.66E2,4E0,5E0,1E0,1E0,5.81E2,4E1,3.8E1,1E0,6.8E1,4.03E2],"tree_param":{"num_deleted":"0","num_feature":"537","num_nodes":"183","size_leaf_vector":"1"}},{"base_weights":[2.338686E1,1.5056638E3,-2.1313418E3,2.695113E3,6.244316E2,-1.0341946E3,-2.9949414E3,3.7839436E3,2.006078E3,4.4174323E2,8.1501167E3,-1.2059683E3,4.6406567E3,-3.031047E3,3.9623492E2,3.9008872E3,-4.559398E1,1.6018636E3,4.4929688E3,7.638124E2,-2.4975815E3,8.241491E2,1.4672533E2,-1.4726483E3,-1.1865844E2,5.191683E2,2.6102734E2,-2.7652876E3,-3.8966467E2,4.073368E3,1.1668286E3,-3.7536075E2,5.324616E2,1.8733804E3,-3.258808E2,4.1192363E3,8.9217444E2,3.917319E2,1.9913602E3,-1.2367428E3,-2.6755938E3,-1.519595E3,4.7219116E2,-3.2039984E2,4.3490674E3,-2.1352183E3,-3.1118464E3,4.466792E3,3.054218E3,2.2131226E2,9.058932E2,-4.5969757E2,2.2661621E1,8.35733E1,-1.123584E1,2.0738064E3,-7.4856665E2,-1.2457279E2,-5.50523E2,4.2562104E3,-1.5354521E2,3.1532126E2,6.4114655E2,3.0392126E3,9.217332E2,-6.382713E2,-2.0065958E2,-2.9304905E3,-1.3066904E3,-1.6970785E3,2.2723584E2,-4.4149182E2,5.1068015E2,8.14572E1,4.6209747E2,-1.8639445E3,-3.1255698E2,-3.1381653E3,4.076705E2,4.5583447E3,-3.4611072E2,3.1144683E3,-4.757124E2,9.96536E2,2.2591716E2,-5.3514895E0,-5.476145E1,-5.5891927E-2,3.144108E0,4.0069875E3,1.694635E3,-3.6501492E2,-3.119648E2,-2.3670195E2,5.090146E2,8.818787E0,-5.8785114E1,4.4835566E3,3.7849402E2,2.3143025E2,5.2080914E2,3.112263E3,-1.7854185E2,7.3785876E2,4.3124487E2,-8.384479E2,1.7713164E2,-2.9650637E3,4.400091E1,-2.5048047E2,-1.4685112E2,-1.7837578E3,2.2793909E3,2.8032095E2,-4.2326498E2,-6.03019E2,3.060702E2,-1.7085851E3,-3.5883694E3,-3.169461E3,3.4229135E2,4.7666602E2,2.2059561E2,1.5220596E2,-1.0481521E2,3.2815652E2,1.3622972E2,-5.6547462E1,-6.8141932E0,1.04007324E2,-1.5452474E0,-5.84222E0,3.065539E1,4.1606525E2,-1.453463E2,1.5479414E2,6.7260205E2,-5.3414345E1,2.132709E2,-2.8845078E1,2.7156952E1,8.884405E1,-3.1413147E1,4.7739072E2,1.2925893E2,5.423825E1,-2.555752E1,8.681417E0,2.696101E2,3.263257E2,1.8521778E1,-9.793469E1,9.959057E1,-1.0681376E2,-1.7581575E1,4.5351757E1,-1.1822364E1,-3.034193E2,-9.522933E1,-2.7533243E1,-4.1406903E0,-1.881624E2,1.8559563E2,3.3753418E1,2.369733E2,3.1011381E1,-2.0083847E1,-6.113249E0,-4.7083847E1,-7.9164406E1,2.2329283E2,-1.747418E2,1.5140135E2,-3.8530597E2,4.7958157E1,-3.2073428E2,-3.7609905E1,-6.7010445E1,2.1395555E2],"categories":[],"categories_nodes":[],"categories_segments":[],"categories_sizes":[],"default_left":[0,0,0,0,0,0,0,0,0,0,0,0,0,0,0,0,0,0,0,0,0,0,0,0,0,0,0,0,0,0,0,0,0,0,0,0,0,0,0,0,0,0,0,0,0,0,0,0,0,0,0,0,0,0,0,0,0,0,0,0,0,0,0,0,0,0,0,0,0,0,0,0,0,0,0,0,0,0,0,0,0,0,0,0,0,0,0,0,0,0,0,0,0,0,0,0,0,0,0,0,0,0,0,0,0,0,0,0,0,0,0,0,0,0,0,0,0,0,0,0,0,0,0,0,0,0,0,0,0,0,0,0,0,0,0,0,0,0,0,0,0,0,0,0,0,0,0,0,0,0,0,0,0,0,0,0,0,0,0,0,0,0,0,0,0,0,0,0,0,0,0,0,0,0,0,0,0,0,0],"id":3,"left_children":[1,3,5,7,9,11,13,15,17,19,21,23,25,27,-1,29,31,33,35,37,39,-1,-1,41,43,-1,-1,45,-1,47,49,51,53,55,57,59,-1,61,63,65,67,69,-1,71,73,75,77,79,81,-1,83,85,87,-1,-1,89,91,93,95,97,-1,99,-1,101,103,105,-1,107,109,111,113,115,-1,-1,-1,117,-1,119,-1,121,123,125,127,129,131,-1,-1,-1,-1,133,135,137,-1,139,141,-1,-1,143,145,147,-1,149,-1,151,-1,153,155,157,-1,159,-1,161,163,165,167,169,-1,171,173,175,177,-1,-1,-1,-1,-1,-1,-1,-1,-1,-1,-1,-1,-1,-1,-1,-1,-1,-1,-1,-1,-1,-1,-1,-1,-1,-1,-1,-1,-1,-1,-1,-1,-1,-1,-1,-1,-1,-1,-1,-1,-1,-1,-1,-1,-1,-1,-1,-1,-1,-1,-1,-1,-1,-1,-1,-1,-1,-1],"loss_changes":[1.6653048E10,3.234458E9,2.0072253E9,9.70625E8,2.4358994E9,9.265144E8,3.2244326E8,2.2741862E8,7.9883034E8,1.6481706E9,1.442816E6,2.6438426E8,4.207232E6,2.5057485E8,0E0,2.2249728E8,3.6400162E6,3.670912E8,1.1185229E8,7.141569E8,3.1978496E7,0E0,0E0,2.2751066E8,1.6682003E8,0E0,0E0,1.8584115E8,0E0,1.5794176E8,4.720544E6,4.2452438E5,1.5581385E6,3.2524288E8,3.841051E6,9.595213E7,0E0,5.5020896E8,4.0236467E8,8.95158E6,4.4323584E7,2.2678886E8,0E0,1.2016542E8,1.49328E5,7.699482E7,1.3607475E8,1.4813338E8,3.1680128E7,0E0,1.334698E6,2.9729E5,9.123657E2,0E0,0E0,4.042217E8,3.8640056E7,3.7215625E6,1.082199E6,8.916288E7,0E0,4.8684614E8,0E0,7.56128E7,1.0772022E8,3.0731715E6,0E0,1.7064128E7,3.875648E6,2.3630746E8,2.6197168E6,1.0211811E8,0E0,0E0,0E0,5.8454464E7,0E0,6.567731E7,0E0,1.3723802E8,1.3682015E7,2.9990016E7,6.800531E4,1.135672E6,1.738846E5,0E0,0E0,0E0,0E0,8.929523E7,3.33435E8,1.959504E7,0E0,1.2877082E6,3.0579062E6,0E0,0E0,7.936986E7,1.109146E6,4.179764E8,0E0,7.87799E7,0E0,7.993977E7,0E0,1.752718E6,5.1606378E5,1.1327488E7,0E0,7.7405312E3,0E0,2.3816166E8,1.02632E6,1.0565655E6,4.47365E4,9.340085E7,0E0,3.60768E7,2.5237376E7,5.8743296E7,1.5607186E7,0E0,0E0,0E0,0E0,0E0,0E0,0E0,0E0,0E0,0E0,0E0,0E0,0E0,0E0,0E0,0E0,0E0,0E0,0E0,0E0,0E0,0E0,0E0,0E0,0E0,0E0,0E0,0E0,0E0,0E0,0E0,0E0,0E0,0E0,0E0,0E0,0E0,0E0,0E0,0E0,0E0,0E0,0E0,0E0,0E0,0E0,0E0,0E0,0E0,0E0,0E0,0E0,0E0,0E0,0E0,0E0,0E0,0E0],"parents":[2147483647,0,0,1,1,2,2,3,3,4,4,5,5,6,6,7,7,8,8,9,9,10,10,11,11,12,12,13,13,15,15,16,16,17,17,18,18,19,19,20,20,23,23,24,24,27,27,29,29,30,30,31,31,32,32,33,33,34,34,35,35,37,37,38,38,39,39,40,40,41,41,43,43,44,44,45,45,46,46,47,47,48,48,50,50,51,51,52,52,55,55,56,56,57,57,58,58,59,59,61,61,63,63,64,64,65,65,67,67,68,68,69,69,70,70,71,71,75,75,77,77,79,79,80,80,81,81,82,82,83,83,84,84,89,89,90,90,91,91,93,93,94,94,97,97,98,98,99,99,101,101,103,103,105,105,106,106,107,107,109,109,111,111,112,112,113,113,114,114,115,115,117,117,118,118,119,119,120,120],"right_children":[2,4,6,8,10,12,14,16,18,20,22,24,26,28,-1,30,32,34,36,38,40,-1,-1,42,44,-1,-1,46,-1,48,50,52,54,56,58,60,-1,62,64,66,68,70,-1,72,74,76,78,80,82,-1,84,86,88,-1,-1,90,92,94,96,98,-1,100,-1,102,104,106,-1,108,110,112,114,116,-1,-1,-1,118,-1,120,-1,122,124,126,128,130,132,-1,-1,-1,-1,134,136,138,-1,140,142,-1,-1,144,146,148,-1,150,-1,152,-1,154,156,158,-1,160,-1,162,164,166,168,170,-1,172,174,176,178,-1,-1,-1,-1,-1,-1,-1,-1,-1,-1,-1,-1,-1,-1,-1,-1,-1,-1,-1,-1,-1,-1,-1,-1,-1,-1,-1,-1,-1,-1,-1,-1,-1,-1,-1,-1,-1,-1,-1,-1,-1,-1,-1,-1,-1,-1,-1,-1,-1,-1,-1,-1,-1,-1,-1,-1,-1,-1],"split_conditions":[2.7314767E-1,-6.4756846E-1,8.255774E-1,-1.1999981E0,1E0,1E0,1E0,1E0,1E0,1E0,1.6163394E0,1E0,6.4143413E-1,1E0,3.9623492E2,1E0,1E0,1E0,1E0,1E0,-4.6342522E-1,8.241491E2,1.4672533E2,1E0,1E0,5.191683E2,2.6102734E2,1.1938639E0,-3.8966467E2,-7.2733533E-1,-1.7524278E0,8.8149674E-2,-1.1350778E0,1E0,-8.317117E-1,1E0,8.9217444E2,1E0,-9.513877E-2,1E0,1E0,1E0,4.7219116E2,1E0,-2.7590615E-1,1E0,1E0,1E0,1E0,2.2131226E2,1E0,-1.644756E0,1.3183637E-1,8.35733E1,-1.123584E1,1E0,1E0,1E0,-1.3680736E0,1E0,-1.5354521E2,1E0,6.4114655E2,1E0,1E0,-2.7590615E-1,-2.0065958E2,1E0,-2.79282E-1,1E0,1E0,1E0,5.1068015E2,8.14572E1,4.6209747E2,1E0,-3.1255698E2,5.0608716E0,4.076705E2,1E0,-2.109131E0,1E0,-3.6327952E-1,1E0,-1.5682846E0,-5.3514895E0,-5.476145E1,-5.5891927E-2,3.144108E0,1E0,1E0,1E0,-3.119648E2,4.958922E-1,-2.6459128E-1,8.818787E0,-5.8785114E1,1E0,-7.855843E-1,1E0,5.2080914E2,1E0,-1.7854185E2,-7.2733533E-1,4.3124487E2,1E0,-7.71886E-2,1E0,4.400091E1,-9.5800114E-1,-1.4685112E2,1E0,-1.9796873E0,1E0,-2.109131E0,1E0,3.060702E2,1E0,1E0,1E0,-6.3996196E-1,4.7666602E2,2.2059561E2,1.5220596E2,-1.0481521E2,3.2815652E2,1.3622972E2,-5.6547462E1,-6.8141932E0,1.04007324E2,-1.5452474E0,-5.84222E0,3.065539E1,4.1606525E2,-1.453463E2,1.5479414E2,6.7260205E2,-5.3414345E1,2.132709E2,-2.8845078E1,2.7156952E1,8.884405E1,-3.1413147E1,4.7739072E2,1.2925893E2,5.423825E1,-2.555752E1,8.681417E0,2.696101E2,3.263257E2,1.8521778E1,-9.793469E1,9.959057E1,-1.0681376E2,-1.7581575E1,4.5351757E1,-1.1822364E1,-3.034193E2,-9.522933E1,-2.7533243E1,-4.1406903E0,-1.881624E2,1.8559563E2,3.3753418E1,2.369733E2,3.1011381E1,-2.0083847E1,-6.113249E0,-4.7083847E1,-7.9164406E1,2.2329283E2,-1.747418E2,1.5140135E2,-3.8530597E2,4.7958157E1,-3.2073428E2,-3.7609905E1,-6.7010445E1,2.1395555E2],"split_indices":[1,1,1,1,199,199,208,179,512,508,0,512,1,379,0,129,520,129,211,512,1,0,0,37,445,0,0,1,0,0,1,0,0,508,1,375,0,308,1,369,246,423,0,208,0,390,261,375,93,0,533,0,0,0,0,513,476,534,0,351,0,270,0,375,421,0,0,132,1,271,533,421,0,0,0,508,0,1,0,533,0,182,0,521,1,0,0,0,0,108,283,194,0,0,0,0,0,186,0,283,0,186,0,0,0,247,0,247,0,0,0,318,0,525,0,210,0,308,236,308,0,0,0,0,0,0,0,0,0,0,0,0,0,0,0,0,0,0,0,0,0,0,0,0,0,0,0,0,0,0,0,0,0,0,0,0,0,0,0,0,0,0,0,0,0,0,0,0,0,0,0,0,0,0,0,0,0,0,0],"split_type":[0,0,0,0,0,0,0,0,0,0,0,0,0,0,0,0,0,0,0,0,0,0,0,0,0,0,0,0,0,0,0,0,0,0,0,0,0,0,0,0,0,0,0,0,0,0,0,0,0,0,0,0,0,0,0,0,0,0,0,0,0,0,0,0,0,0,0,0,0,0,0,0,0,0,0,0,0,0,0,0,0,0,0,0,0,0,0,0,0,0,0,0,0,0,0,0,0,0,0,0,0,0,0,0,0,0,0,0,0,0,0,0,0,0,0,0,0,0,0,0,0,0,0,0,0,0,0,0,0,0,0,0,0,0,0,0,0,0,0,0,0,0,0,0,0,0,0,0,0,0,0,0,0,0,0,0,0,0,0,0,0,0,0,0,0,0,0,0,0,0,0,0,0,0,0,0,0,0,0],"sum_hessian":[5.21E3,3.087E3,2.123E3,1.312E3,1.775E3,9.37E2,1.186E3,5.05E2,8.07E2,1.735E3,4E1,9.11E2,2.6E1,1.181E3,5E0,4.9E2,1.5E1,6.97E2,1.1E2,1.565E3,1.7E2,3.9E1,1E0,7.31E2,1.8E2,1.8E1,8E0,9.1E2,2.71E2,4.6E2,3E1,1E1,5E0,6.11E2,8.6E1,1.05E2,5E0,1.203E3,3.62E2,2.3E1,1.47E2,7.27E2,4E0,1.74E2,6E0,3.28E2,5.82E2,3.27E2,1.33E2,3E0,2.7E1,8E0,2E0,3E0,2E0,5.68E2,4.3E1,4.7E1,3.9E1,1.03E2,2E0,1.19E3,1.3E1,1.81E2,1.81E2,1.5E1,8E0,1.22E2,2.5E1,6.6E2,6.7E1,1.72E2,2E0,1E0,5E0,2.62E2,6.6E1,5.81E2,1E0,3.21E2,6E0,1.31E2,2E0,2.3E1,4E0,2E0,6E0,1E0,1E0,9E1,4.78E2,3.9E1,4E0,4.1E1,6E0,2E0,3.7E1,9.7E1,6E0,1.172E3,1.8E1,1.79E2,2E0,1.74E2,7E0,1.2E1,3E0,1.21E2,1E0,4E0,2.1E1,6.47E2,1.3E1,6.3E1,4E0,1.66E2,6E0,2.44E2,1.8E1,5.76E2,5E0,2.93E2,2.8E1,1E0,5E0,1.18E2,1.3E1,1E0,1E0,2.2E1,1E0,1E0,3E0,8.8E1,2E0,4.67E2,1.1E1,3.8E1,1E0,3.8E1,3E0,4E0,2E0,8.8E1,9E0,5E0,1E0,1.109E3,6.3E1,1.7E2,9E0,2.2E1,1.52E2,8E0,4E0,1E0,2E0,1.16E2,5E0,3E0,1E0,6.31E2,1.6E1,1E0,1.2E1,6E1,3E0,1E0,3E0,1.57E2,9E0,2.42E2,2E0,1.7E1,1E0,5.68E2,8E0,4E0,1E0],"tree_param":{"num_deleted":"0","num_feature":"537","num_nodes":"179","size_leaf_vector":"1"}},{"base_weights":[4.1611748E1,1.6122701E3,-1.6092906E3,-8.578103E2,1.9347743E3,-3.011672E3,-7.529572E2,4.9381464E2,-1.3690876E3,3.5770276E3,1.5343167E3,4.1649112E2,-3.063453E3,-8.223878E2,9.242902E2,2.1542988E3,-5.203964E2,-1.6686643E3,1.3939662E3,5.7403545E3,3.1515667E3,1.108369E3,3.1175547E3,1.8041682E3,-7.767488E2,-3.0793562E3,3.9718234E2,-1.9742465E2,-1.7365344E3,2.5878203E3,-1.3081506E2,6.0064746E2,-1.1454833E3,-1.7782035E3,4.6695117E2,8.183941E2,4.684851E2,7.011668E3,1.9244678E3,3.9370886E3,2.5474941E3,1.3151144E3,-1.3702808E3,3.57833E3,1.6636423E3,4.521045E1,2.8410586E3,8.4311134E1,-1.170149E3,-3.1314675E3,-1.00247076E3,-5.935953E2,9.0285767E2,-1.6033032E3,-3.6348032E2,-5.986555E1,2.8582583E3,2.9058456E2,2.266635E2,-1.6520963E3,1.4250839E3,-1.9129135E3,3.237173E3,1.5958656E3,-2.4629552E2,7.215624E3,8.539046E1,4.3119943E2,6.392415E2,4.0871436E3,-6.1733563E2,2.765174E3,3.9657177E1,1.2306078E3,6.9384E3,-1.7466154E2,-1.7467128E3,3.7243145E3,2.8845203E2,1.8401278E3,-1.7143408E2,-2.314297E1,3.8459034E1,4.006609E2,-6.063807E1,-1.6406853E1,2.2894032E1,-1.26088394E2,-2.0791342E1,-3.1731199E3,-1.4583099E3,-4.2386E2,-1.8432762E2,-6.6081775E2,4.602186E2,1.4171458E3,-2.0002606E3,-8.2673785E2,-1.959852E3,3.3119277E3,5.5069965E2,6.6511176E2,-1.0986416E3,-1.7566166E3,4.9383724E1,2.8550943E2,-2.88558E2,3.7366205E2,-2.0919373E3,3.5652933E2,5.3152424E1,-4.906701E1,1.7664142E3,7.415201E3,1.1125942E3,9.1987897E2,-1.1894401E2,4.3498247E3,1.5314558E3,9.511894E1,-1.1997361E2,3.081978E3,1.3321156E3,-1.7808629E2,3.2303854E2,1.7001367E3,5.8785175E2,7.116274E2,1.1856012E2,-3.4090857E2,1.5481674E2,-1.8084617E3,1.20781555E2,3.8056152E3,-6.3797726E1,6.09046E2,-2.5166853E2,-6.902603E2,2.0241818E3,-3.1872556E3,6.147204E2,-1.727139E3,1.753473E2,2.385088E1,-5.167156E2,-7.475267E2,3.2712534E2,1.2532125E3,5.2633966E2,-2.0299814E2,-2.9953077E1,-1.00491956E3,2.2714932E3,-1.992026E3,3.700255E2,3.5618808E2,-7.28345E1,8.16077E1,-3.465215E1,1.3669177E2,-4.6589943E1,-1.812343E2,5.8472137E1,-1.8983398E2,1.1325439E1,-8.203926E1,6.122601E1,1.6283061E2,-9.637958E1,-2.3265933E2,-2.5714842E1,1.9452628E2,-4.240034E1,7.540445E2,4.254209E1,1.425421E2,5.737142E0,1.1028615E2,-5.4662533E1,4.4492407E2,-1.3538516E2,2.3870824E2,8.349715E1,-3.315869E0,2.0340984E1,3.3980862E2,1.00191246E2,2.29411E2,7.215389E1,5.0711384E1,-9.961055E1,1.5313963E2,6.92995E2,5.073579E1,8.0921454E2,4.1039597E1,-7.201352E1,-1.867042E2,1.0758119E2,4.80374E2,3.3528644E2,6.891411E1,-3.660319E0,-3.334891E1,7.9084964E0,6.1907715E1,-1.0544734E2,2.1431155E2,-8.545375E1,-2.8769727E2,-3.450503E2,-7.822772E1,2.0682372E2,-2.0117642E2,1.7006206E2,2.1299902E1,-1.2943567E1,2.175293E0,-5.5842804E1,-8.228184E1,2.8709372E2,1.1079333E2,3.8643744E2,-6.456728E1,-1.6470721E2,-1.316791E1,6.543384E2,-2.2565279E2,-1.1261967E2],"categories":[],"categories_nodes":[],"categories_segments":[],"categories_sizes":[],"default_left":[0,0,0,0,0,0,0,0,0,0,0,0,0,0,0,0,0,0,0,0,0,0,0,0,0,0,0,0,0,0,0,0,0,0,0,0,0,0,0,0,0,0,0,0,0,0,0,0,0,0,0,0,0,0,0,0,0,0,0,0,0,0,0,0,0,0,0,0,0,0,0,0,0,0,0,0,0,0,0,0,0,0,0,0,0,0,0,0,0,0,0,0,0,0,0,0,0,0,0,0,0,0,0,0,0,0,0,0,0,0,0,0,0,0,0,0,0,0,0,0,0,0,0,0,0,0,0,0,0,0,0,0,0,0,0,0,0,0,0,0,0,0,0,0,0,0,0,0,0,0,0,0,0,0,0,0,0,0,0,0,0,0,0,0,0,0,0,0,0,0,0,0,0,0,0,0,0,0,0,0,0,0,0,0,0,0,0,0,0,0,0,0,0,0,0,0,0,0,0,0,0,0,0,0,0,0,0,0,0,0,0,0,0,0,0,0,0,0,0,0,0,0,0,0,0,0,0,0,0],"id":4,"left_children":[1,3,5,7,9,11,13,15,17,19,21,23,25,27,-1,29,31,33,35,37,39,41,43,45,47,49,-1,51,53,55,-1,57,59,61,-1,63,-1,65,67,69,71,73,75,77,79,81,83,85,87,89,91,93,95,97,-1,-1,99,101,-1,103,105,107,109,111,-1,113,-1,-1,115,117,119,121,123,125,127,129,131,133,135,137,-1,-1,-1,-1,-1,-1,-1,-1,-1,139,141,143,-1,145,-1,147,149,151,153,155,157,159,161,163,-1,-1,165,167,169,-1,-1,-1,171,173,175,177,-1,179,181,183,-1,185,187,-1,189,191,193,-1,-1,195,-1,197,-1,199,-1,201,203,205,207,209,211,213,-1,215,217,219,-1,221,-1,-1,-1,223,225,227,-1,-1,-1,-1,-1,-1,-1,-1,-1,-1,-1,-1,-1,-1,-1,-1,-1,-1,-1,-1,-1,-1,-1,-1,-1,-1,-1,-1,-1,-1,-1,-1,-1,-1,-1,-1,-1,-1,-1,-1,-1,-1,-1,-1,-1,-1,-1,-1,-1,-1,-1,-1,-1,-1,-1,-1,-1,-1,-1,-1,-1,-1,-1,-1,-1,-1,-1,-1,-1,-1,-1,-1,-1,-1,-1],"loss_changes":[1.3434355E10,2.1183242E9,3.0289464E9,2.1419891E8,1.5338394E9,1.7243546E8,1.1054883E9,1.4707645E8,1.9006787E8,3.8626867E8,1.2690012E9,2.9298134E7,1.299671E8,8.916936E8,0E0,5.6307616E7,3.991839E7,1.5753946E8,3.5886136E7,3.271314E8,1.640384E8,7.692036E8,2.5605402E8,1.4328108E7,3.586897E6,9.566515E7,0E0,4.0645786E8,1.4867827E8,2.9279072E7,0E0,9.525368E6,5.1591384E7,1.4818202E8,0E0,6.398478E7,0E0,5.5480064E7,5.8916024E7,1.1781658E8,1.2260378E8,6.38689E8,5.159403E7,1.4288538E8,6.5925984E7,6.47748E5,2.495668E7,2.5486825E5,8.3911E4,5.471232E7,1.1081856E7,2.4532674E8,3.7444883E8,1.6177638E8,0E0,0E0,2.5656848E7,1.186663E7,0E0,8.690584E6,1.8806532E7,8.220909E7,1.528392E6,8.497268E6,0E0,4.682035E7,0E0,0E0,1.0398888E7,9.407795E7,3.1349812E6,8.575795E7,1.1465689E7,4.090382E8,3.57472E6,9.645607E6,2.0424384E7,1.0735795E8,2.9046612E6,4.7506976E7,0E0,0E0,0E0,0E0,0E0,0E0,0E0,0E0,0E0,5.179085E7,2.8505872E7,7.7393825E5,0E0,2.3604678E8,0E0,1.198361E8,7.00032E5,1.10003976E8,8.885658E7,2.8421408E7,2.233231E6,1.476925E7,8.128979E6,8.383688E6,0E0,0E0,3.4004345E6,2.9988574E7,7.75879E7,0E0,0E0,0E0,8.704188E6,3.733939E7,1.1538845E6,5.231986E6,0E0,9.37065E7,6.734008E6,8.32866E4,0E0,1.0364621E8,2.0765624E7,0E0,5.622914E6,6.7238886E8,3.4091213E8,0E0,0E0,8.854226E6,0E0,1.8718432E7,0E0,9.611136E7,0E0,5.688875E5,2.4269388E5,5.1214945E6,3.447923E7,5.291213E7,1.3391236E7,3.123376E7,0E0,2.002758E5,3.62281E5,1.8589302E8,0E0,6.919344E7,0E0,0E0,0E0,3.985429E7,1.1466306E8,8.789005E7,0E0,0E0,0E0,0E0,0E0,0E0,0E0,0E0,0E0,0E0,0E0,0E0,0E0,0E0,0E0,0E0,0E0,0E0,0E0,0E0,0E0,0E0,0E0,0E0,0E0,0E0,0E0,0E0,0E0,0E0,0E0,0E0,0E0,0E0,0E0,0E0,0E0,0E0,0E0,0E0,0E0,0E0,0E0,0E0,0E0,0E0,0E0,0E0,0E0,0E0,0E0,0E0,0E0,0E0,0E0,0E0,0E0,0E0,0E0,0E0,0E0,0E0,0E0,0E0,0E0,0E0,0E0,0E0,0E0,0E0,0E0,0E0,0E0,0E0,0E0],"parents":[2147483647,0,0,1,1,2,2,3,3,4,4,5,5,6,6,7,7,8,8,9,9,10,10,11,11,12,12,13,13,15,15,16,16,17,17,18,18,19,19,20,20,21,21,22,22,23,23,24,24,25,25,27,27,28,28,29,29,31,31,32,32,33,33,35,35,37,37,38,38,39,39,40,40,41,41,42,42,43,43,44,44,45,45,46,46,47,47,48,48,49,49,50,50,51,51,52,52,53,53,56,56,57,57,59,59,60,60,61,61,62,62,63,63,65,65,68,68,69,69,70,70,71,71,72,72,73,73,74,74,75,75,76,76,77,77,78,78,79,79,89,89,90,90,91,91,93,93,95,95,96,96,97,97,98,98,99,99,100,100,101,101,102,102,103,103,106,106,107,107,108,108,112,112,113,113,114,114,115,115,117,117,118,118,119,119,121,121,122,122,124,124,125,125,126,126,129,129,131,131,133,133,135,135,136,136,137,137,138,138,139,139,140,140,141,141,143,143,144,144,145,145,147,147,151,151,152,152,153,153],"right_children":[2,4,6,8,10,12,14,16,18,20,22,24,26,28,-1,30,32,34,36,38,40,42,44,46,48,50,-1,52,54,56,-1,58,60,62,-1,64,-1,66,68,70,72,74,76,78,80,82,84,86,88,90,92,94,96,98,-1,-1,100,102,-1,104,106,108,110,112,-1,114,-1,-1,116,118,120,122,124,126,128,130,132,134,136,138,-1,-1,-1,-1,-1,-1,-1,-1,-1,140,142,144,-1,146,-1,148,150,152,154,156,158,160,162,164,-1,-1,166,168,170,-1,-1,-1,172,174,176,178,-1,180,182,184,-1,186,188,-1,190,192,194,-1,-1,196,-1,198,-1,200,-1,202,204,206,208,210,212,214,-1,216,218,220,-1,222,-1,-1,-1,224,226,228,-1,-1,-1,-1,-1,-1,-1,-1,-1,-1,-1,-1,-1,-1,-1,-1,-1,-1,-1,-1,-1,-1,-1,-1,-1,-1,-1,-1,-1,-1,-1,-1,-1,-1,-1,-1,-1,-1,-1,-1,-1,-1,-1,-1,-1,-1,-1,-1,-1,-1,-1,-1,-1,-1,-1,-1,-1,-1,-1,-1,-1,-1,-1,-1,-1,-1,-1,-1,-1,-1,-1,-1,-1,-1,-1],"split_conditions":[8.900446E-2,3E0,3E0,-8.317117E-1,-1.1999981E0,1E0,1E0,2E0,1E0,1E0,1E0,4.5729092E-1,1E0,6.4143413E-1,9.242902E2,1E0,-1.6010693E0,1E0,2.0898743E0,1E0,-1.1350778E0,1E0,-9.513877E-2,-5.125424E-1,-7.127731E-1,1E0,3.9718234E2,1E0,1E0,-1.5682846E0,-1.3081506E2,1E0,7.358744E-2,1E0,4.6695117E2,7.7694327E-1,4.684851E2,1E0,-1.644756E0,1E0,1E0,1E0,-6.4756846E-1,1E0,1E0,-1.0986723E0,3.5492977E-1,6.4143413E-1,1E0,1E0,6.597173E-1,1E0,1E0,7.762801E-4,-3.6348032E2,-5.986555E1,1E0,1E0,2.266635E2,1E0,3.5492977E-1,1E0,1.2458471E0,-1.455447E0,-2.4629552E2,1E0,8.539046E1,4.3119943E2,1E0,1E0,1E0,1E0,-2.3048575E0,-4.6342522E-1,1.0346948E0,1E0,6.4151454E-1,1E0,-6.4756846E-1,-7.2733533E-1,-1.7143408E2,-2.314297E1,3.8459034E1,4.006609E2,-6.063807E1,-1.6406853E1,2.2894032E1,-1.26088394E2,-2.0791342E1,6.7181606E0,1E0,1E0,-1.8432762E2,1E0,4.602186E2,1E0,1E0,1E0,1E0,1E0,1.463986E-1,-1.7524278E0,1E0,1E0,4.9383724E1,2.8550943E2,1E0,-3.1959283E-1,1E0,3.5652933E2,5.3152424E1,-4.906701E1,1E0,1E0,-1.2515757E0,1E0,-1.1894401E2,1E0,-1.5682846E0,-1.5682846E0,-1.1997361E2,1E0,-1.5682846E0,-1.7808629E2,1E0,1E0,1E0,7.116274E2,1.1856012E2,-1.015855E0,1.5481674E2,1E0,1.20781555E2,-4.9433962E-1,-6.3797726E1,1E0,1E0,-1.9796873E0,1.949203E0,1.1938639E0,-1.5282581E0,1E0,1.753473E2,4.5729092E-1,-6.297684E-1,1E0,3.2712534E2,1E0,5.2633966E2,-2.0299814E2,-2.9953077E1,1.1938639E0,-1.3741931E-1,1E0,3.700255E2,3.5618808E2,-7.28345E1,8.16077E1,-3.465215E1,1.3669177E2,-4.6589943E1,-1.812343E2,5.8472137E1,-1.8983398E2,1.1325439E1,-8.203926E1,6.122601E1,1.6283061E2,-9.637958E1,-2.3265933E2,-2.5714842E1,1.9452628E2,-4.240034E1,7.540445E2,4.254209E1,1.425421E2,5.737142E0,1.1028615E2,-5.4662533E1,4.4492407E2,-1.3538516E2,2.3870824E2,8.349715E1,-3.315869E0,2.0340984E1,3.3980862E2,1.00191246E2,2.29411E2,7.215389E1,5.0711384E1,-9.961055E1,1.5313963E2,6.92995E2,5.073579E1,8.0921454E2,4.1039597E1,-7.201352E1,-1.867042E2,1.0758119E2,4.80374E2,3.3528644E2,6.891411E1,-3.660319E0,-3.334891E1,7.9084964E0,6.1907715E1,-1.0544734E2,2.1431155E2,-8.545375E1,-2.8769727E2,-3.450503E2,-7.822772E1,2.0682372E2,-2.0117642E2,1.7006206E2,2.1299902E1,-1.2943567E1,2.175293E0,-5.5842804E1,-8.228184E1,2.8709372E2,1.1079333E2,3.8643744E2,-6.456728E1,-1.6470721E2,-1.316791E1,6.543384E2,-2.2565279E2,-1.1261967E2],"split_indices":[1,536,536,1,1,536,291,536,510,513,512,1,37,1,0,371,0,303,0,508,0,508,1,0,0,100,0,512,508,1,0,98,0,511,0,0,0,171,0,94,533,310,1,338,355,0,0,1,15,512,0,310,373,0,0,0,344,506,0,138,0,536,0,0,0,532,0,0,517,182,526,95,1,1,0,145,0,373,1,0,0,0,0,0,0,0,0,0,0,1,290,514,0,270,0,445,525,506,125,179,0,1,377,514,0,0,513,0,100,0,0,0,526,408,0,93,0,363,1,1,0,129,1,0,184,283,312,0,0,1,0,137,0,0,0,518,521,0,0,1,0,445,0,1,0,271,0,421,0,0,0,1,0,512,0,0,0,0,0,0,0,0,0,0,0,0,0,0,0,0,0,0,0,0,0,0,0,0,0,0,0,0,0,0,0,0,0,0,0,0,0,0,0,0,0,0,0,0,0,0,0,0,0,0,0,0,0,0,0,0,0,0,0,0,0,0,0,0,0,0,0,0,0,0,0,0,0,0,0],"split_type":[0,0,0,0,0,0,0,0,0,0,0,0,0,0,0,0,0,0,0,0,0,0,0,0,0,0,0,0,0,0,0,0,0,0,0,0,0,0,0,0,0,0,0,0,0,0,0,0,0,0,0,0,0,0,0,0,0,0,0,0,0,0,0,0,0,0,0,0,0,0,0,0,0,0,0,0,0,0,0,0,0,0,0,0,0,0,0,0,0,0,0,0,0,0,0,0,0,0,0,0,0,0,0,0,0,0,0,0,0,0,0,0,0,0,0,0,0,0,0,0,0,0,0,0,0,0,0,0,0,0,0,0,0,0,0,0,0,0,0,0,0,0,0,0,0,0,0,0,0,0,0,0,0,0,0,0,0,0,0,0,0,0,0,0,0,0,0,0,0,0,0,0,0,0,0,0,0,0,0,0,0,0,0,0,0,0,0,0,0,0,0,0,0,0,0,0,0,0,0,0,0,0,0,0,0,0,0,0,0,0,0,0,0,0,0,0,0,0,0,0,0,0,0,0,0,0,0,0,0],"sum_hessian":[5.177E3,2.653E3,2.524E3,3.06E2,2.347E3,9.55E2,1.569E3,8.4E1,2.22E2,4.57E2,1.89E3,1.4E1,9.41E2,1.56E3,9E0,3.1E1,5.3E1,2.01E2,2.1E1,7.1E1,3.86E2,1.492E3,3.98E2,6E0,8E0,9.4E2,1E0,9.28E2,6.32E2,2.8E1,3E0,1.9E1,3.4E1,1.99E2,2E0,2E1,1E0,5.2E1,1.9E1,1.63E2,2.23E2,1.378E3,1.14E2,3E2,9.8E1,3E0,3E0,3E0,5E0,9.16E2,2.4E1,6.83E2,2.45E2,5.94E2,3.8E1,2E0,2.6E1,1.8E1,1E0,2.9E1,5E0,1.95E2,4E0,1.7E1,3E0,5E1,2E0,5E0,1.4E1,1.58E2,5E0,2.05E2,1.8E1,1.36E3,1.8E1,2.8E1,8.6E1,2.87E2,1.3E1,9.4E1,4E0,2E0,1E0,2E0,1E0,1E0,2E0,4E0,1E0,8.92E2,2.4E1,1.6E1,8E0,6.76E2,7E0,2.09E2,3.6E1,1.89E2,4.05E2,2.1E1,5E0,1.5E1,3E0,2.8E1,1E0,2E0,3E0,1.4E1,1.81E2,3E0,1E0,1E0,1.6E1,4.8E1,2E0,1.3E1,1E0,1.42E2,1.6E1,3E0,2E0,1.66E2,3.9E1,1E0,1.7E1,7.84E2,5.76E2,1.7E1,1E0,2.7E1,1E0,8.5E1,1E0,2.82E2,5E0,8E0,5E0,6E0,8.8E1,8.89E2,3E0,2.3E1,1E0,3E0,1.3E1,6.63E2,1.3E1,2.03E2,6E0,3.5E1,1E0,1.8E2,9E0,4.04E2,1E0,2E1,1E0,4E0,1E0,9E0,6E0,2E0,1E0,2.6E1,2E0,2E0,1E0,7E0,7E0,1.6E2,2.1E1,1.5E1,1E0,4.7E1,1E0,1E0,1E0,1.2E1,1E0,1.4E2,2E0,5E0,1.1E1,2E0,1E0,1.43E2,2.3E1,1.3E1,2.6E1,1.6E1,1E0,7.62E2,2.2E1,5.72E2,4E0,9E0,1.8E1,8.4E1,1E0,8.2E1,2E2,7E0,1E0,4E0,1E0,1E0,5E0,8.5E1,3E0,4.19E2,4.7E2,2E0,1E0,2.2E1,1E0,1E0,2E0,1E0,1.2E1,6.51E2,1.2E1,1.95E2,8E0,1.18E2,6.2E1,7E0,2E0,3.07E2,9.7E1],"tree_param":{"num_deleted":"0","num_feature":"537","num_nodes":"229","size_leaf_vector":"1"}},{"base_weights":[-2.4594423E1,1.3660184E3,-1.4508457E3,3.0933933E3,9.724186E2,-2.6597864E3,-6.9932416E2,6.105293E2,3.3118599E3,1.2109382E3,-1.6084747E3,-2.0353496E3,-2.912856E3,-1.4597495E2,-1.4928834E3,2.0553784E2,2.5764758E3,5.5277705E3,2.901135E3,-7.6245184E2,1.4621493E3,-8.985032E2,-2.0424834E3,-2.0820933E3,3.8394296E2,-2.937573E3,3.6256912E2,-4.9749768E2,8.374735E2,-1.6084417E3,8.2258594E2,2.8601616E1,2.1910808E2,4.1367404E2,2.9727402E2,6.560322E3,1.6581968E3,2.407673E3,4.3262E3,7.087559E2,-1.4265347E3,2.3428923E3,9.0073926E2,-9.987875E2,2.1066565E2,-2.0960068E3,1.2988771E2,-2.1353257E3,2.7911887E2,-2.9491863E3,1.695024E2,1.2352462E3,-1.623831E2,-5.948369E2,3.4430307E2,7.447838E2,6.1186523E2,-1.6597855E3,4.4297202E2,7.776048E2,-6.482614E2,-4.2796924E2,1.06674904E2,6.853581E3,1.0031969E3,3.9576535E2,5.9993427E2,2.517147E3,-8.165115E2,5.773582E3,2.7021975E3,3.098511E3,-4.9062433E2,-1.9674179E2,-2.8025283E3,3.377881E3,1.420443E3,8.0623926E2,7.036831E3,-1.3548787E3,-2.2086578E2,-2.146922E3,1.1675551E2,6.003472E2,-2.2380574E3,-2.9619695E3,7.268186E1,1.6352783E2,-2.5430487E1,-6.4581024E2,4.475554E3,4.1318634E2,1.8550542E3,-1.2557378E3,-2.1981892E3,9.6509955E2,-8.0260185E1,-9.258879E2,1.541547E2,2.6712892E0,-5.9800518E1,7.071505E3,8.1120926E1,1.377907E2,2.2006592E1,-2.3354126E1,2.1703323E2,2.6577249E3,-3.2062512E2,-1.0159187E3,-1.7045528E2,7.3833677E3,4.707704E3,2.730112E2,4.5343815E1,3.489472E3,2.1667041E2,1.5324957E3,-1.1569746E3,6.9283195E1,-1.9749591E2,-2.9680432E3,3.037514E2,4.708916E3,2.9080032E3,1.8138253E3,1.8685378E2,7.2390594E2,6.077585E2,9.054969E2,3.454731E2,3.9299487E2,-1.7151465E3,-4.1722208E2,1.4965619E2,-2.338377E3,-9.084439E2,1.712561E3,-1.0823871E3,-2.326164E3,-3.8296674E2,-6.8454865E2,-2.9833342E3,-4.8240094E2,-2.159442E3,5.0906387E2,2.6101562E1,8.4332855E2,-6.615279E2,-4.833542E2,2.0056945E3,-1.296041E3,4.5649176E2,-2.2473372E3,3.722702E2,1.5766045E2,3.447143E1,4.617158E1,-1.357611E2,7.545442E2,2.8152097E2,-4.3884666E1,1.5150212E2,2.2101956E2,3.40882E2,3.2393017E1,-4.6977673E1,-1.423256E2,-4.0538754E1,-3.6104126E1,1.9662956E1,9.7279465E1,7.6809E2,4.8161398E2,3.396322E1,3.7696555E2,-7.040667E1,3.9959522E1,-1.710096E1,4.2471417E2,-6.176008E1,-5.4081055E1,-2.4016951E2,4.1080433E1,-1.6225566E2,-3.1560236E2,1.8051323E2,4.884714E2,1.1766406E1,2.710687E2,5.9514465E2,1.3676779E2,2.9255118E2,1.857252E0,2.1765965E2,6.0176094E1,3.2332993E2,6.2513393E1,-5.6475216E1,-1.8360716E2,1.03995155E2,-5.0274742E1,5.1595345E1,-2.4339952E2,-1.2431543E1,-1.11554365E1,-1.1200475E2,-2.4747803E1,2.9879758E2,-1.2033047E2,-1.58599615E1,-2.3621016E2,1.1993064E2,-2.3159065E1,-8.3341064E1,-7.98185E1,7.4180503E0,-3.0061597E2,-1.4646396E2,-5.349226E1,3.603337E2,-2.2573955E2,1.3691978E2,7.505725E1,4.5163043E2,-1.2211826E2,7.8087687E0,-1.0136175E2,5.4523293E1,2.1105943E2,-1.1490289E2,-1.477235E2,-1.27630205E1,-2.2841641E2,1.3616322E2],"categories":[],"categories_nodes":[],"categories_segments":[],"categories_sizes":[],"default_left":[0,0,0,0,0,0,0,0,0,0,0,0,0,0,0,0,0,0,0,0,0,0,0,0,0,0,0,0,0,0,0,0,0,0,0,0,0,0,0,0,0,0,0,0,0,0,0,0,0,0,0,0,0,0,0,0,0,0,0,0,0,0,0,0,0,0,0,0,0,0,0,0,0,0,0,0,0,0,0,0,0,0,0,0,0,0,0,0,0,0,0,0,0,0,0,0,0,0,0,0,0,0,0,0,0,0,0,0,0,0,0,0,0,0,0,0,0,0,0,0,0,0,0,0,0,0,0,0,0,0,0,0,0,0,0,0,0,0,0,0,0,0,0,0,0,0,0,0,0,0,0,0,0,0,0,0,0,0,0,0,0,0,0,0,0,0,0,0,0,0,0,0,0,0,0,0,0,0,0,0,0,0,0,0,0,0,0,0,0,0,0,0,0,0,0,0,0,0,0,0,0,0,0,0,0,0,0,0,0,0,0,0,0,0,0,0,0,0,0,0,0,0,0,0,0,0,0,0,0,0,0,0,0,0,0],"id":5,"left_children":[1,3,5,7,9,11,13,15,17,19,21,23,25,27,29,31,33,35,37,39,41,43,45,47,-1,49,51,53,55,57,-1,59,-1,-1,61,63,65,67,69,71,73,75,77,79,-1,81,-1,83,-1,85,-1,87,-1,89,-1,91,-1,93,-1,95,97,99,-1,101,103,-1,105,107,109,111,113,115,117,119,121,123,125,127,129,131,133,135,-1,137,139,141,-1,-1,-1,143,145,147,149,151,153,155,-1,157,-1,-1,-1,159,-1,-1,-1,161,-1,163,165,167,169,171,173,-1,-1,175,177,179,181,183,-1,185,-1,187,189,191,193,195,-1,-1,-1,197,199,201,-1,203,205,207,209,211,213,215,217,219,221,-1,-1,223,225,227,229,231,-1,233,-1,-1,-1,-1,-1,-1,-1,-1,-1,-1,-1,-1,-1,-1,-1,-1,-1,-1,-1,-1,-1,-1,-1,-1,-1,-1,-1,-1,-1,-1,-1,-1,-1,-1,-1,-1,-1,-1,-1,-1,-1,-1,-1,-1,-1,-1,-1,-1,-1,-1,-1,-1,-1,-1,-1,-1,-1,-1,-1,-1,-1,-1,-1,-1,-1,-1,-1,-1,-1,-1,-1,-1,-1,-1,-1,-1,-1,-1,-1,-1,-1],"loss_changes":[1.0341253E10,1.7888968E9,2.334868E9,2.6119322E8,1.3292677E9,1.4394624E8,6.977544E8,3.2375354E7,3.7655808E8,9.798254E8,5.2712256E7,9.589542E7,5.8563584E7,3.2544912E8,7.5982E8,1.2868859E7,2.2424744E7,2.499232E8,2.4848589E8,2.2087243E8,8.6107494E8,2.6206032E7,2.5476736E7,8.71497E7,0E0,4.722995E7,1.6145285E7,2.6990298E8,1.1227077E8,2.1528384E8,0E0,1.9259454E7,0E0,0E0,3.7046318E6,7.260621E7,3.6610508E7,1.0612045E8,1.944334E8,2.0654758E8,2.6118026E8,6.396068E8,6.102479E8,1.934316E7,0E0,2.3459552E7,0E0,8.363021E7,0E0,3.6780544E7,0E0,4.40969E6,0E0,1.810054E8,0E0,8.903054E7,0E0,1.343511E8,0E0,6.882554E6,1.501234E7,3.423407E5,0E0,5.435008E7,8.57578E5,0E0,1.3809016E7,1.1340877E8,1.0684015E6,1.4534272E7,5.936E5,2.552096E7,6.960259E7,4.0013696E7,8.85936E7,1.7210778E8,1.7547194E8,4.5036723E8,5.30768E7,3.2206144E7,9.677332E6,2.1827392E7,0E0,2.6167292E7,4.3650816E7,2.9432832E7,0E0,0E0,0E0,1.643721E8,1.547792E7,8.987389E7,2.1668464E7,9.909395E7,9.617254E7,5.358467E6,0E0,1.2637602E7,0E0,0E0,0E0,5.432141E7,0E0,0E0,0E0,8.997773E6,0E0,7.466906E7,1.7466881E6,8.319395E5,4.921177E5,1.555648E7,1.3296192E7,0E0,0E0,2.998848E7,4.9170788E5,8.11311E7,2.654056E7,4.466561E7,0E0,7.599968E7,0E0,6.3410944E7,1.1244326E8,1.2838259E8,3.0050038E7,3.160972E8,0E0,0E0,0E0,2.9295168E6,1.7480016E7,2.4342058E6,0E0,1.9289856E7,2.782888E6,2.14833E7,2.858025E5,3.9242624E7,6.3464625E5,8.958395E5,1.4826496E7,1.347487E8,2.865024E7,0E0,0E0,4.0225176E7,2.3373046E7,3.8333615E6,2.2391424E7,7.816378E7,0E0,4.2372864E7,0E0,0E0,0E0,0E0,0E0,0E0,0E0,0E0,0E0,0E0,0E0,0E0,0E0,0E0,0E0,0E0,0E0,0E0,0E0,0E0,0E0,0E0,0E0,0E0,0E0,0E0,0E0,0E0,0E0,0E0,0E0,0E0,0E0,0E0,0E0,0E0,0E0,0E0,0E0,0E0,0E0,0E0,0E0,0E0,0E0,0E0,0E0,0E0,0E0,0E0,0E0,0E0,0E0,0E0,0E0,0E0,0E0,0E0,0E0,0E0,0E0,0E0,0E0,0E0,0E0,0E0,0E0,0E0,0E0,0E0,0E0,0E0,0E0,0E0,0E0,0E0,0E0,0E0,0E0,0E0,0E0],"parents":[2147483647,0,0,1,1,2,2,3,3,4,4,5,5,6,6,7,7,8,8,9,9,10,10,11,11,12,12,13,13,14,14,15,15,16,16,17,17,18,18,19,19,20,20,21,21,22,22,23,23,25,25,26,26,27,27,28,28,29,29,31,31,34,34,35,35,36,36,37,37,38,38,39,39,40,40,41,41,42,42,43,43,45,45,47,47,49,49,51,51,53,53,55,55,57,57,59,59,60,60,61,61,63,63,64,64,66,66,67,67,68,68,69,69,70,70,71,71,72,72,73,73,74,74,75,75,76,76,77,77,78,78,79,79,80,80,81,81,83,83,84,84,85,85,89,89,90,90,91,91,92,92,93,93,94,94,95,95,97,97,101,101,105,105,107,107,108,108,109,109,110,110,111,111,112,112,115,115,116,116,117,117,118,118,119,119,121,121,123,123,124,124,125,125,126,126,127,127,131,131,132,132,133,133,135,135,136,136,137,137,138,138,139,139,140,140,141,141,142,142,143,143,144,144,147,147,148,148,149,149,150,150,151,151,153,153],"right_children":[2,4,6,8,10,12,14,16,18,20,22,24,26,28,30,32,34,36,38,40,42,44,46,48,-1,50,52,54,56,58,-1,60,-1,-1,62,64,66,68,70,72,74,76,78,80,-1,82,-1,84,-1,86,-1,88,-1,90,-1,92,-1,94,-1,96,98,100,-1,102,104,-1,106,108,110,112,114,116,118,120,122,124,126,128,130,132,134,136,-1,138,140,142,-1,-1,-1,144,146,148,150,152,154,156,-1,158,-1,-1,-1,160,-1,-1,-1,162,-1,164,166,168,170,172,174,-1,-1,176,178,180,182,184,-1,186,-1,188,190,192,194,196,-1,-1,-1,198,200,202,-1,204,206,208,210,212,214,216,218,220,222,-1,-1,224,226,228,230,232,-1,234,-1,-1,-1,-1,-1,-1,-1,-1,-1,-1,-1,-1,-1,-1,-1,-1,-1,-1,-1,-1,-1,-1,-1,-1,-1,-1,-1,-1,-1,-1,-1,-1,-1,-1,-1,-1,-1,-1,-1,-1,-1,-1,-1,-1,-1,-1,-1,-1,-1,-1,-1,-1,-1,-1,-1,-1,-1,-1,-1,-1,-1,-1,-1,-1,-1,-1,-1,-1,-1,-1,-1,-1,-1,-1,-1,-1,-1,-1,-1,-1,-1],"split_conditions":[8.900446E-2,-1.1999981E0,3E0,3E0,1E0,8.255774E-1,6.4143413E-1,1E0,1E0,3E0,-4.6342522E-1,1E0,5.0608716E0,1E0,1E0,1E0,1E0,1E0,1E0,2E0,1E0,1E0,1E0,1E0,3.8394296E2,1E0,8.37545E0,1E0,1E0,1E0,8.2258594E2,1E0,2.1910808E2,4.1367404E2,-1.5682846E0,1E0,-1.5682846E0,1E0,-1.3841413E0,-6.4756846E-1,1E0,-2.79282E-1,1E0,1E0,2.1066565E2,1E0,1.2988771E2,1E0,2.7911887E2,1E0,1.695024E2,1E0,-1.623831E2,1E0,3.4430307E2,1E0,6.1186523E2,1.1938639E0,4.4297202E2,1E0,1E0,-1.7524278E0,1.06674904E2,1E0,-1.7524278E0,3.9576535E2,1E0,1E0,1E0,-1.7524278E0,1E0,1E0,1E0,1E0,1E0,-8.317117E-1,1E0,1E0,-9.513877E-2,-1.015855E0,1E0,1E0,1.1675551E2,4.5729092E-1,1E0,1E0,7.268186E1,1.6352783E2,-2.5430487E1,1E0,4.5729092E-1,4.5729092E-1,1E0,1E0,1E0,2E0,-8.0260185E1,2E0,1.541547E2,2.6712892E0,-5.9800518E1,1E0,8.1120926E1,1.377907E2,2.2006592E1,1E0,2.1703323E2,1E0,-1.7524278E0,1E0,-1.5682846E0,-2.1207142E0,1E0,2.730112E2,4.5343815E1,1E0,-1.015855E0,-2.79282E-1,1E0,1E0,-1.9749591E2,1E0,3.037514E2,1E0,1E0,1E0,1E0,1E0,6.077585E2,9.054969E2,3.454731E2,1E0,1E0,1E0,1.4965619E2,1E0,-2.79282E-1,1E0,1E0,1E0,1E0,1E0,1E0,1E0,1E0,5.0906387E2,2.6101562E1,1E0,1E0,1E0,1E0,1E0,4.5649176E2,1E0,3.722702E2,1.5766045E2,3.447143E1,4.617158E1,-1.357611E2,7.545442E2,2.8152097E2,-4.3884666E1,1.5150212E2,2.2101956E2,3.40882E2,3.2393017E1,-4.6977673E1,-1.423256E2,-4.0538754E1,-3.6104126E1,1.9662956E1,9.7279465E1,7.6809E2,4.8161398E2,3.396322E1,3.7696555E2,-7.040667E1,3.9959522E1,-1.710096E1,4.2471417E2,-6.176008E1,-5.4081055E1,-2.4016951E2,4.1080433E1,-1.6225566E2,-3.1560236E2,1.8051323E2,4.884714E2,1.1766406E1,2.710687E2,5.9514465E2,1.3676779E2,2.9255118E2,1.857252E0,2.1765965E2,6.0176094E1,3.2332993E2,6.2513393E1,-5.6475216E1,-1.8360716E2,1.03995155E2,-5.0274742E1,5.1595345E1,-2.4339952E2,-1.2431543E1,-1.11554365E1,-1.1200475E2,-2.4747803E1,2.9879758E2,-1.2033047E2,-1.58599615E1,-2.3621016E2,1.1993064E2,-2.3159065E1,-8.3341064E1,-7.98185E1,7.4180503E0,-3.0061597E2,-1.4646396E2,-5.349226E1,3.603337E2,-2.2573955E2,1.3691978E2,7.505725E1,4.5163043E2,-1.2211826E2,7.8087687E0,-1.0136175E2,5.4523293E1,2.1105943E2,-1.1490289E2,-1.477235E2,-1.27630205E1,-2.2841641E2,1.3616322E2],"split_indices":[1,1,536,536,508,1,1,526,513,536,1,37,1,512,291,98,513,508,430,536,513,323,451,443,0,290,1,270,208,208,0,534,0,0,1,532,1,94,1,1,513,1,308,534,0,48,0,536,0,444,0,529,0,303,0,534,0,1,0,371,403,1,0,171,1,0,323,179,534,1,518,344,536,380,303,1,510,310,1,1,145,246,0,1,100,536,0,0,0,508,1,1,516,393,261,536,0,536,0,0,0,526,0,0,0,451,0,520,1,520,1,1,532,0,0,179,1,1,369,512,0,532,0,351,48,534,318,283,0,0,0,94,137,451,0,484,1,520,23,318,532,339,273,310,394,0,0,443,520,438,90,282,0,260,0,0,0,0,0,0,0,0,0,0,0,0,0,0,0,0,0,0,0,0,0,0,0,0,0,0,0,0,0,0,0,0,0,0,0,0,0,0,0,0,0,0,0,0,0,0,0,0,0,0,0,0,0,0,0,0,0,0,0,0,0,0,0,0,0,0,0,0,0,0,0,0,0,0,0,0,0,0,0,0,0],"split_type":[0,0,0,0,0,0,0,0,0,0,0,0,0,0,0,0,0,0,0,0,0,0,0,0,0,0,0,0,0,0,0,0,0,0,0,0,0,0,0,0,0,0,0,0,0,0,0,0,0,0,0,0,0,0,0,0,0,0,0,0,0,0,0,0,0,0,0,0,0,0,0,0,0,0,0,0,0,0,0,0,0,0,0,0,0,0,0,0,0,0,0,0,0,0,0,0,0,0,0,0,0,0,0,0,0,0,0,0,0,0,0,0,0,0,0,0,0,0,0,0,0,0,0,0,0,0,0,0,0,0,0,0,0,0,0,0,0,0,0,0,0,0,0,0,0,0,0,0,0,0,0,0,0,0,0,0,0,0,0,0,0,0,0,0,0,0,0,0,0,0,0,0,0,0,0,0,0,0,0,0,0,0,0,0,0,0,0,0,0,0,0,0,0,0,0,0,0,0,0,0,0,0,0,0,0,0,0,0,0,0,0,0,0,0,0,0,0,0,0,0,0,0,0,0,0,0,0,0,0,0,0,0,0,0,0],"sum_hessian":[5.21E3,2.638E3,2.572E3,4.87E2,2.151E3,9.84E2,1.588E3,4E1,4.47E2,1.97E3,1.81E2,2.89E2,6.95E2,9.37E2,6.51E2,3.5E1,5E0,6.6E1,3.81E2,2.22E2,1.748E3,7.1E1,1.1E2,2.88E2,1E0,6.9E2,5E0,6.91E2,2.46E2,6.45E2,6E0,3.4E1,1E0,2E0,3E0,5.1E1,1.5E1,2.87E2,9.4E1,6.9E1,1.53E2,6.78E2,1.07E3,7E1,1E0,1.09E2,1E0,2.86E2,2E0,6.89E2,1E0,4E0,1E0,6.76E2,1.5E1,2.44E2,2E0,6.41E2,4E0,1.6E1,1.8E1,2E0,1E0,4.8E1,3E0,3E0,1.2E1,2.78E2,9E0,4.7E1,4.7E1,2.2E1,4.7E1,8.2E1,7.1E1,3.17E2,3.61E2,1.056E3,1.4E1,4.7E1,2.3E1,1.08E2,1E0,1E1,2.76E2,6.87E2,2E0,3E0,1E0,6.71E2,5E0,1.9E2,5.4E1,3.7E2,2.71E2,1.5E1,1E0,1.7E1,1E0,1E0,1E0,4.6E1,2E0,1E0,2E0,1E1,2E0,2.65E2,1.3E1,6E0,3E0,1.4E1,3.3E1,4.6E1,1E0,1.9E1,3E0,1.1E1,3.6E1,7.3E1,9E0,7E1,1E0,7.8E1,2.39E2,2.73E2,8.8E1,1.042E3,1.4E1,7E0,7E0,8E0,3.9E1,2.2E1,1E0,9.2E1,1.6E1,6E0,4E0,2.63E2,1.3E1,7E0,6.8E2,6.08E2,6.3E1,4E0,1E0,1.36E2,5.4E1,3E0,5.1E1,3.69E2,1E0,2.7E2,1E0,6E0,9E0,4E0,1.3E1,4E1,6E0,9E0,1E0,1.71E2,9.4E1,2E0,1.1E1,2E0,4E0,2E0,1E0,1E0,1.3E1,3.2E1,1E0,1.8E1,1E0,2E0,1E0,4E0,7E0,2.6E1,1E1,6.2E1,1.1E1,6.8E1,2E0,7.5E1,3E0,2.28E2,1.1E1,1.98E2,7.5E1,8.3E1,5E0,9.96E2,4.6E1,7E0,1E0,3.8E1,1E0,2.1E1,1E0,8.8E1,4E0,4E0,1.2E1,3E0,3E0,3E0,1E0,2.61E2,2E0,1.2E1,1E0,6E0,1E0,6.68E2,1.2E1,6.02E2,6E0,6.2E1,1E0,1.35E2,1E0,3E1,2.4E1,2E0,1E0,5E1,1E0,3.19E2,5E1,2.68E2,2E0],"tree_param":{"num_deleted":"0","num_feature":"537","num_nodes":"235","size_leaf_vector":"1"}},{"base_weights":[1.897855E1,1.2676599E3,-1.2808844E3,-8.1255206E2,1.5448866E3,-2.3804458E3,-6.0103784E2,-6.0133105E2,-3.542072E2,1.4742019E3,7.9496533E2,1.947328E2,-2.4240916E3,-7.4608E2,4.8478564E2,6.577574E2,-9.464658E2,2.0069188E3,5.669431E2,2.2453394E3,-7.1177466E2,-2.4383357E3,3.7114487E2,-8.0301074E2,8.079179E2,2.2879941E3,-4.3473434E2,-1.0294071E3,4.25392E2,5.011186E3,1.8613811E3,3.9752347E2,3.1219688E3,-2.883705E1,3.6568796E2,9.6086914E1,-9.497527E2,-2.4573025E3,2.1364995E2,-4.084742E2,-1.6516517E3,2.9891658E3,-3.668335E1,5.731996E2,-1.3116075E3,-1.0936202E3,4.5149957E2,7.2601206E3,3.4705405E3,2.999115E3,1.4727205E3,5.1895374E2,-2.6716498E2,3.229846E3,1.8505127E2,-1.5331299E1,2.355934E1,-1.0082672E3,-1.208693E1,-2.1671235E3,-2.7202737E3,-4.8237372E2,4.7202887E2,-1.7194943E3,3.4526413E2,-5.6531567E1,3.447032E3,7.2292755E2,-1.15825806E2,1.0692167E3,-6.5317975E2,-1.514316E3,9.810902E1,-1.1777117E3,2.3959831E2,7.5547876E3,6.2039065E0,3.763446E3,-1.26651054E2,3.6316963E3,-4.0216263E2,1.4100602E3,7.0777484E2,4.5891824E2,6.1748865E2,5.5285225E1,3.2612317E2,4.136527E1,-1.6625097E1,-1.0730739E3,-1.41002445E1,-2.2350789E3,-6.078264E2,-2.7358928E3,1.6385231E2,-5.446485E2,4.1146616E2,-1.7508564E3,4.4127536E2,3.7526218E2,-5.819987E1,1.1004275E2,-3.8752407E1,2.3940482E2,-7.1808596E0,-1.6538454E2,4.082246E1,-1.664252E2,4.9413414E1,-1.2330242E2,3.699885E2,8.5929407E2,3.9147678E2,3.9248297E2,3.077339E1,4.6931305E2,2.869343E2,-5.7467873E1,2.1705147E2,2.1614726E2,1.03407585E2,3.838194E1,4.4646484E2,-1.1415668E2,-1.743768E1,-2.2519087E2,1.7226695E2,-1.2925735E1,-1.1560579E2,-2.7583853E2,5.4432167E1,-6.1631508E1,3.505195E2,-1.7772192E2,3.5986118E2],"categories":[],"categories_nodes":[],"categories_segments":[],"categories_sizes":[],"default_left":[0,0,0,0,0,0,0,0,0,0,0,0,0,0,0,0,0,0,0,0,0,0,0,0,0,0,0,0,0,0,0,0,0,0,0,0,0,0,0,0,0,0,0,0,0,0,0,0,0,0,0,0,0,0,0,0,0,0,0,0,0,0,0,0,0,0,0,0,0,0,0,0,0,0,0,0,0,0,0,0,0,0,0,0,0,0,0,0,0,0,0,0,0,0,0,0,0,0,0,0,0,0,0,0,0,0,0,0,0,0,0,0,0,0,0,0,0,0,0,0,0,0,0,0,0,0,0,0,0,0,0,0,0,0,0],"id":6,"left_children":[1,3,5,7,9,11,13,15,-1,17,-1,19,21,23,-1,25,27,29,31,33,35,37,-1,39,-1,41,43,45,-1,47,49,51,53,-1,-1,55,57,59,-1,61,63,65,67,69,71,73,-1,75,77,79,81,83,-1,85,87,-1,-1,89,-1,91,93,95,-1,97,-1,-1,99,101,-1,103,105,107,-1,109,-1,111,-1,113,-1,115,117,119,-1,121,-1,-1,-1,-1,-1,123,-1,125,127,129,-1,131,-1,133,-1,-1,-1,-1,-1,-1,-1,-1,-1,-1,-1,-1,-1,-1,-1,-1,-1,-1,-1,-1,-1,-1,-1,-1,-1,-1,-1,-1,-1,-1,-1,-1,-1,-1,-1,-1,-1],"loss_changes":[8.4077343E9,1.5261276E9,1.8943713E9,1.7560978E8,1.03228365E9,1.0985984E8,1.2488174E9,1.2813578E8,0E0,1.1136865E9,0E0,3.665944E7,1.013847E8,7.826811E8,0E0,1.1597834E8,1.0795672E8,6.170696E8,3.684818E8,2.357441E7,2.8757705E6,9.310515E7,0E0,5.08912E8,0E0,4.260517E7,3.685831E7,9.104197E7,0E0,1.7826291E8,6.0580454E8,3.031572E8,1.5589568E7,0E0,0E0,2.4636812E5,2.87523E5,6.0617216E7,0E0,3.99856E8,1.7912742E8,3.6452624E7,8.491228E6,1.3563715E7,1.3196908E7,7.225328E7,0E0,5.2073216E7,6.92007E7,7.602852E8,3.452841E8,2.5815475E8,0E0,6.71424E5,4.5926788E5,0E0,0E0,2.57006E5,0E0,4.612608E7,4.232781E7,2.9934275E8,0E0,1.07376E8,0E0,0E0,2.6536528E7,3.3694832E6,0E0,2.302346E7,8.787548E6,7.97098E6,0E0,6.928275E7,0E0,2.3389952E7,0E0,2.0441408E7,0E0,2.1338138E8,2.7789708E7,2.8680077E8,0E0,2.2849987E8,0E0,0E0,0E0,0E0,0E0,1.53232E5,0E0,3.713357E7,5.470636E6,3.908557E7,0E0,2.9977744E8,0E0,8.005734E7,0E0,0E0,0E0,0E0,0E0,0E0,0E0,0E0,0E0,0E0,0E0,0E0,0E0,0E0,0E0,0E0,0E0,0E0,0E0,0E0,0E0,0E0,0E0,0E0,0E0,0E0,0E0,0E0,0E0,0E0,0E0,0E0,0E0,0E0,0E0,0E0,0E0],"parents":[2147483647,0,0,1,1,2,2,3,3,4,4,5,5,6,6,7,7,9,9,11,11,12,12,13,13,15,15,16,16,17,17,18,18,19,19,20,20,21,21,23,23,25,25,26,26,27,27,29,29,30,30,31,31,32,32,35,35,36,36,37,37,39,39,40,40,41,41,42,42,43,43,44,44,45,45,47,47,48,48,49,49,50,50,51,51,53,53,54,54,57,57,59,59,60,60,61,61,63,63,66,66,67,67,69,69,70,70,71,71,73,73,75,75,77,77,79,79,80,80,81,81,83,83,89,89,91,91,92,92,93,93,95,95,97,97],"right_children":[2,4,6,8,10,12,14,16,-1,18,-1,20,22,24,-1,26,28,30,32,34,36,38,-1,40,-1,42,44,46,-1,48,50,52,54,-1,-1,56,58,60,-1,62,64,66,68,70,72,74,-1,76,78,80,82,84,-1,86,88,-1,-1,90,-1,92,94,96,-1,98,-1,-1,100,102,-1,104,106,108,-1,110,-1,112,-1,114,-1,116,118,120,-1,122,-1,-1,-1,-1,-1,124,-1,126,128,130,-1,132,-1,134,-1,-1,-1,-1,-1,-1,-1,-1,-1,-1,-1,-1,-1,-1,-1,-1,-1,-1,-1,-1,-1,-1,-1,-1,-1,-1,-1,-1,-1,-1,-1,-1,-1,-1,-1,-1,-1],"split_conditions":[8.900446E-2,3E0,3E0,1E0,1E0,1E0,1E0,-1.015855E0,-3.542072E2,-4.6342522E-1,7.9496533E2,4.5729092E-1,1E0,1E0,4.8478564E2,2E0,1E0,-1.7524278E0,1E0,-1.0986723E0,-7.127731E-1,1E0,3.7114487E2,8.255774E-1,8.079179E2,7.358744E-2,-1.5457329E0,1E0,4.25392E2,-1.7785829E0,1E0,1E0,2.228798E0,-2.883705E1,3.6568796E2,6.4143413E-1,1E0,1.1938639E0,2.1364995E2,1E0,1E0,-1.5682846E0,1E0,1E0,1E0,1E0,4.5149957E2,1E0,1E0,1E0,1E0,1E0,-2.6716498E2,-1.9796873E0,2.4181068E0,-1.5331299E1,2.355934E1,8.941693E-1,-1.208693E1,1E0,1E0,1E0,4.7202887E2,1E0,3.4526413E2,-5.6531567E1,1E0,7.5801235E-1,-1.15825806E2,-1.936571E0,-1.9796873E0,1E0,9.810902E1,1E0,2.3959831E2,1E0,6.2039065E0,1E0,-1.26651054E2,-8.317117E-1,1E0,-1.1999981E0,7.0777484E2,1E0,6.1748865E2,5.5285225E1,3.2612317E2,4.136527E1,-1.6625097E1,1E0,-1.41002445E1,1E0,5.893817E-1,1E0,1.6385231E2,1E0,4.1146616E2,1E0,4.4127536E2,3.7526218E2,-5.819987E1,1.1004275E2,-3.8752407E1,2.3940482E2,-7.1808596E0,-1.6538454E2,4.082246E1,-1.664252E2,4.9413414E1,-1.2330242E2,3.699885E2,8.5929407E2,3.9147678E2,3.9248297E2,3.077339E1,4.6931305E2,2.869343E2,-5.7467873E1,2.1705147E2,2.1614726E2,1.03407585E2,3.838194E1,4.4646484E2,-1.1415668E2,-1.743768E1,-2.2519087E2,1.7226695E2,-1.2925735E1,-1.1560579E2,-2.7583853E2,5.4432167E1,-6.1631508E1,3.505195E2,-1.7772192E2,3.5986118E2],"split_indices":[1,536,536,471,199,536,199,1,0,1,0,1,37,291,0,536,303,1,48,0,0,314,0,1,0,0,0,314,0,0,513,369,0,0,0,1,280,1,0,445,208,1,371,478,432,511,0,71,94,508,33,445,0,0,0,0,0,0,0,100,290,421,0,393,0,0,214,0,0,1,0,138,0,41,0,534,0,179,0,1,145,1,0,310,0,0,0,0,0,15,0,445,0,102,0,270,0,261,0,0,0,0,0,0,0,0,0,0,0,0,0,0,0,0,0,0,0,0,0,0,0,0,0,0,0,0,0,0,0,0,0,0,0,0,0],"split_type":[0,0,0,0,0,0,0,0,0,0,0,0,0,0,0,0,0,0,0,0,0,0,0,0,0,0,0,0,0,0,0,0,0,0,0,0,0,0,0,0,0,0,0,0,0,0,0,0,0,0,0,0,0,0,0,0,0,0,0,0,0,0,0,0,0,0,0,0,0,0,0,0,0,0,0,0,0,0,0,0,0,0,0,0,0,0,0,0,0,0,0,0,0,0,0,0,0,0,0,0,0,0,0,0,0,0,0,0,0,0,0,0,0,0,0,0,0,0,0,0,0,0,0,0,0,0,0,0,0,0,0,0,0,0,0],"sum_hessian":[5.176E3,2.64E3,2.536E3,3.1E2,2.33E3,9.67E2,1.569E3,2.9E2,2E1,2.307E3,2.3E1,1.6E1,9.51E2,1.53E3,3.9E1,6.2E1,2.28E2,1.452E3,8.55E2,4E0,1.2E1,9.5E2,1E0,1.522E3,8E0,2.4E1,3.8E1,2.26E2,2E0,6.4E1,1.388E3,8.04E2,5.1E1,2E0,2E0,3E0,9E0,9.47E2,3E0,1.041E3,4.81E2,1.8E1,6E0,1.8E1,2E1,2.25E2,1E0,2.3E1,4.1E1,3.5E2,1.038E3,7.75E2,2.9E1,4.9E1,2E0,1E0,2E0,8E0,1E0,4.59E2,4.88E2,1.028E3,1.3E1,4.76E2,5E0,2E0,1.6E1,4E0,2E0,1.3E1,5E0,1.9E1,1E0,2.21E2,4E0,2.2E1,1E0,3.9E1,2E0,2.95E2,5.5E1,1.029E3,9E0,7.69E2,6E0,1E0,4.8E1,1E0,1E0,7E0,1E0,4.39E2,2E1,4.87E2,1E0,1.016E3,1.2E1,4.75E2,1E0,1.5E1,1E0,3E0,1E0,5E0,8E0,2E0,3E0,1.8E1,1E0,2.2E2,1E0,1.5E1,7E0,3.7E1,2E0,1.19E2,1.76E2,5.3E1,2E0,3.4E2,6.89E2,7.57E2,1.2E1,6E0,1E0,4.38E2,1E0,1.2E1,8E0,4.84E2,3E0,1E3,1.6E1,4.74E2,1E0],"tree_param":{"num_deleted":"0","num_feature":"537","num_nodes":"135","size_leaf_vector":"1"}},{"base_weights":[8.241613E0,1.1227343E3,-1.1544652E3,2.2574797E3,6.764641E2,-5.6370575E2,-2.0815742E3,3.535955E3,1.8947739E3,3.345982E2,1.9959938E3,-9.089092E2,7.342383E2,-2.1100823E3,4.3724454E2,2.9721008E3,5.2342593E3,2.07778E3,1.20198685E2,8.09668E2,-1.320507E2,1.8986211E3,6.808746E2,-9.6272833E2,3.2948367E2,1.0962749E3,-1.7162498E2,-2.1252185E3,4.2656616E2,3.0725613E3,-1.6528418E2,5.5664365E3,1.6068344E2,2.2921177E3,6.447025E2,1.1676392E3,-9.8429924E1,7.043149E2,5.2816646E3,-1.9152042E2,7.4741986E2,2.0311104E3,-2.7445517E2,-1.1120011E3,5.7366595E2,1.3386982E3,-1.8026444E3,-1.9405544E3,-2.6822665E2,4.221488E3,2.2966677E3,5.7607627E3,1.2281079E2,2.467151E3,3.7442776E2,1.4878048E3,3.299689E2,1.542776E3,-1.659541E2,-8.438607E2,4.4786495E1,5.965794E2,4.151392E3,5.507324E2,5.563711E1,-2.9572372E2,2.6708162E3,2.1601753E3,-4.1117883E2,2.286449E2,-1.0247242E3,-1.1356356E3,5.9843286E2,-5.2040443E1,6.0386176E2,1.2052195E3,6.720707E2,-1.7349659E1,-1.8608333E2,-1.9571477E3,3.478658E2,4.5958853E3,6.841366E1,2.4498284E3,-9.4964066E1,6.5393684E1,5.883245E3,2.658517E3,3.8833408E2,7.8398553E2,-5.2728876E2,1.6192886E3,1.8459619E2,-4.2068866E2,3.8949487E2,1.9087883E2,2.2186963E2,-2.2230892E1,3.701172E-2,1.5517708E1,-1.0312024E2,7.159697E2,-4.130073E1,5.3166327E2,5.5849475E2,4.8123237E3,1.7914309E3,-3.7382773E2,3.7966293E2,1.4452839E3,3.7681147E3,2.7894463E3,1.565742E3,-4.764844E0,-6.811607E2,-1.08985E2,4.619912E2,-1.217703E2,-1.2590454E1,-1.1712306E3,3.0031853E3,8.624181E2,4.484411E2,1.9009364E3,4.9122647E2,-1.6016539E3,-2.180005E3,4.845979E2,7.063588E1,-5.020581E1,3.8373127E1,4.1151025E2,1.7503122E2,6.096829E2,1.3926396E2,2.9374896E2,1.4590569E2,2.0266037E2,-4.5441713E0,8.367877E1,-2.308252E1,-7.4200005E1,-1.8050537E1,8.2377E1,2.3080547E2,2.5606413E1,-9.269206E-1,7.5225426E1,-1.0905515E2,5.8804443E1,8.79285E0,6.469981E1,-3.505052E1,1.3027148E1,7.967586E1,-4.288409E1,8.232437E0,3.7752457E1,2.7401645E2,5.0414035E2,4.58043E1,2.0013152E2,1.0674707E1,-2.0912056E2,-2.2124933E1,4.0819687E1,1.6216585E2,4.2083163E2,6.730029E1,2.9908365E2,1.7551855E1,1.7044928E2,-9.1354126E1,-1.7492146E1,5.0821484E1,-7.6970314E1,-1.1872424E1,5.9394184E1,-3.908672E0,-1.2157055E2,1.8023694E2,4.7923508E2,2.1262459E1,9.222532E1,-1.0680713E1,5.0691948E1,-3.5371452E1,2.1237144E2,-6.806296E1,3.1334929E1,6.026122E2,6.830724E1,-1.6457635E2,-2.2019377E2,1.3824117E2],"categories":[],"categories_nodes":[],"categories_segments":[],"categories_sizes":[],"default_left":[0,0,0,0,0,0,0,0,0,0,0,0,0,0,0,0,0,0,0,0,0,0,0,0,0,0,0,0,0,0,0,0,0,0,0,0,0,0,0,0,0,0,0,0,0,0,0,0,0,0,0,0,0,0,0,0,0,0,0,0,0,0,0,0,0,0,0,0,0,0,0,0,0,0,0,0,0,0,0,0,0,0,0,0,0,0,0,0,0,0,0,0,0,0,0,0,0,0,0,0,0,0,0,0,0,0,0,0,0,0,0,0,0,0,0,0,0,0,0,0,0,0,0,0,0,0,0,0,0,0,0,0,0,0,0,0,0,0,0,0,0,0,0,0,0,0,0,0,0,0,0,0,0,0,0,0,0,0,0,0,0,0,0,0,0,0,0,0,0,0,0,0,0,0,0,0,0,0,0,0,0,0,0,0,0,0,0,0,0,0,0,0,0,0,0],"id":7,"left_children":[1,3,5,7,9,11,13,15,17,19,21,23,25,27,-1,29,31,33,35,37,39,41,-1,43,-1,45,-1,47,-1,49,-1,51,-1,53,55,57,59,61,63,65,-1,67,69,71,73,75,77,79,-1,81,83,85,-1,87,89,91,93,95,97,99,101,103,105,-1,-1,107,109,111,113,115,117,119,-1,-1,121,123,-1,-1,-1,125,-1,127,129,131,-1,-1,133,135,137,139,141,143,145,147,149,-1,151,-1,-1,-1,-1,153,155,157,-1,159,161,163,-1,165,167,169,171,173,175,-1,177,-1,-1,179,181,183,185,187,189,191,193,-1,-1,-1,-1,-1,-1,-1,-1,-1,-1,-1,-1,-1,-1,-1,-1,-1,-1,-1,-1,-1,-1,-1,-1,-1,-1,-1,-1,-1,-1,-1,-1,-1,-1,-1,-1,-1,-1,-1,-1,-1,-1,-1,-1,-1,-1,-1,-1,-1,-1,-1,-1,-1,-1,-1,-1,-1,-1,-1,-1,-1,-1,-1,-1,-1,-1,-1,-1],"loss_changes":[6.733124E9,1.3404275E9,1.390445E9,3.3344512E8,8.589115E8,6.985082E8,2.0041574E8,1.2495821E8,1.9012902E8,3.3652013E8,1.5783155E8,2.8461728E8,2.9475232E8,1.1327898E8,0E0,6.916698E7,2.7885056E7,1.6044902E8,1.3285027E7,3.4684458E8,3.4979427E8,1.1253939E8,0E0,2.8015654E8,0E0,2.0651917E8,0E0,9.090458E7,0E0,9.202688E7,0E0,1.450016E7,0E0,1.5322163E8,1.8119892E7,5.517613E6,5.308324E6,2.687387E8,1.198688E7,2.2915107E8,0E0,1.1683302E8,9.529239E6,1.9958131E8,4.229632E6,1.7487446E8,1.530592E6,8.078541E7,0E0,7.399699E7,4.393523E7,1.2308288E7,0E0,1.6620493E8,1.5968794E7,2.654232E6,2.785249E6,3.016478E6,3.8101117E4,1.8190815E6,2.5450425E6,2.2623214E8,1.7059904E7,0E0,0E0,2.3871798E8,2.5406512E7,1.2105498E8,2.1866248E6,5.928401E6,1.425215E6,1.701161E8,0E0,0E0,3.523684E6,1.2827274E8,0E0,0E0,0E0,5.211059E7,0E0,3.594381E7,1.4643528E6,7.411418E7,0E0,0E0,1.2736512E7,1.2091571E8,2.7192528E7,1.941456E6,7.72701E5,5.505872E6,6.066125E4,5.569975E6,3.0087815E6,0E0,1.4274766E6,0E0,0E0,0E0,0E0,2.71455E4,1.987689E6,2.3961987E8,0E0,1.1330272E7,2.397222E6,1.893072E8,0E0,1.598678E6,1.2037952E7,8.632934E7,6.6068256E7,1.0499976E6,4.130525E5,0E0,1.03930325E6,0E0,0E0,1.4972429E8,4.787979E7,2.402402E6,3.689438E6,7.880918E7,1.2616892E8,3.1979904E7,4.1483776E7,0E0,0E0,0E0,0E0,0E0,0E0,0E0,0E0,0E0,0E0,0E0,0E0,0E0,0E0,0E0,0E0,0E0,0E0,0E0,0E0,0E0,0E0,0E0,0E0,0E0,0E0,0E0,0E0,0E0,0E0,0E0,0E0,0E0,0E0,0E0,0E0,0E0,0E0,0E0,0E0,0E0,0E0,0E0,0E0,0E0,0E0,0E0,0E0,0E0,0E0,0E0,0E0,0E0,0E0,0E0,0E0,0E0,0E0,0E0,0E0,0E0,0E0,0E0,0E0,0E0,0E0,0E0,0E0],"parents":[2147483647,0,0,1,1,2,2,3,3,4,4,5,5,6,6,7,7,8,8,9,9,10,10,11,11,12,12,13,13,15,15,16,16,17,17,18,18,19,19,20,20,21,21,23,23,25,25,27,27,29,29,31,31,33,33,34,34,35,35,36,36,37,37,38,38,39,39,41,41,42,42,43,43,44,44,45,45,46,46,47,47,49,49,50,50,51,51,53,53,54,54,55,55,56,56,57,57,58,58,59,59,60,60,61,61,62,62,65,65,66,66,67,67,68,68,69,69,70,70,71,71,74,74,75,75,79,79,81,81,82,82,83,83,86,86,87,87,88,88,89,89,90,90,91,91,92,92,93,93,94,94,96,96,101,101,102,102,103,103,105,105,106,106,107,107,109,109,110,110,111,111,112,112,113,113,114,114,116,116,119,119,120,120,121,121,122,122,123,123,124,124,125,125,126,126],"right_children":[2,4,6,8,10,12,14,16,18,20,22,24,26,28,-1,30,32,34,36,38,40,42,-1,44,-1,46,-1,48,-1,50,-1,52,-1,54,56,58,60,62,64,66,-1,68,70,72,74,76,78,80,-1,82,84,86,-1,88,90,92,94,96,98,100,102,104,106,-1,-1,108,110,112,114,116,118,120,-1,-1,122,124,-1,-1,-1,126,-1,128,130,132,-1,-1,134,136,138,140,142,144,146,148,150,-1,152,-1,-1,-1,-1,154,156,158,-1,160,162,164,-1,166,168,170,172,174,176,-1,178,-1,-1,180,182,184,186,188,190,192,194,-1,-1,-1,-1,-1,-1,-1,-1,-1,-1,-1,-1,-1,-1,-1,-1,-1,-1,-1,-1,-1,-1,-1,-1,-1,-1,-1,-1,-1,-1,-1,-1,-1,-1,-1,-1,-1,-1,-1,-1,-1,-1,-1,-1,-1,-1,-1,-1,-1,-1,-1,-1,-1,-1,-1,-1,-1,-1,-1,-1,-1,-1,-1,-1,-1,-1,-1,-1],"split_conditions":[8.900446E-2,-1.015855E0,1.0097206E0,-1.4263225E0,1E0,1E0,1E0,1E0,1E0,-4.6342522E-1,1E0,1E0,1E0,1E0,4.3724454E2,1E0,1E0,1E0,-1.5682846E0,1E0,1E0,1E0,6.808746E2,1E0,3.2948367E2,1E0,-1.7162498E2,1E0,4.2656616E2,-1.7524278E0,-1.6528418E2,1E0,1.6068344E2,1E0,-1.5682846E0,1E0,-1.2979565E0,1E0,1E0,1E0,7.4741986E2,1E0,-4.6342522E-1,1E0,-1.6010693E0,1E0,-9.5800114E-1,1E0,-2.6822665E2,1E0,1E0,-2.109131E0,1.2281079E2,1E0,-1.1999981E0,1E0,-1.2807002E0,1E0,-9.111107E-1,1E0,-1.2370135E0,1E0,-6.4756846E-1,5.507324E2,5.563711E1,1E0,-4.9433962E-1,-2.79282E-1,-6.4756846E-1,-8.317117E-1,6.597173E-1,1E0,5.9843286E2,-5.2040443E1,2.7314767E-1,4.5729092E-1,6.720707E2,-1.7349659E1,-1.8608333E2,1.378007E0,3.478658E2,1E0,-1.9796873E0,1E0,-9.4964066E1,6.5393684E1,-1.1999981E0,-4.2910416E-2,1E0,1E0,-6.545242E-1,-1.0283366E0,-6.909298E-1,-1.3680736E0,-2.9046836E-1,1.9087883E2,-1.2370135E0,-2.2230892E1,3.701172E-2,1.5517708E1,-1.0312024E2,-1.2807002E0,-9.111107E-1,1E0,5.5849475E2,1.0346948E0,1E0,1E0,3.7966293E2,-1.1350778E0,-9.513877E-2,1E0,1E0,1E0,1E0,-1.08985E2,1E0,-1.217703E2,-1.2590454E1,1E0,4.5729092E-1,1E0,1E0,1E0,1E0,-1.644756E0,1E0,4.845979E2,7.063588E1,-5.020581E1,3.8373127E1,4.1151025E2,1.7503122E2,6.096829E2,1.3926396E2,2.9374896E2,1.4590569E2,2.0266037E2,-4.5441713E0,8.367877E1,-2.308252E1,-7.4200005E1,-1.8050537E1,8.2377E1,2.3080547E2,2.5606413E1,-9.269206E-1,7.5225426E1,-1.0905515E2,5.8804443E1,8.79285E0,6.469981E1,-3.505052E1,1.3027148E1,7.967586E1,-4.288409E1,8.232437E0,3.7752457E1,2.7401645E2,5.0414035E2,4.58043E1,2.0013152E2,1.0674707E1,-2.0912056E2,-2.2124933E1,4.0819687E1,1.6216585E2,4.2083163E2,6.730029E1,2.9908365E2,1.7551855E1,1.7044928E2,-9.1354126E1,-1.7492146E1,5.0821484E1,-7.6970314E1,-1.1872424E1,5.9394184E1,-3.908672E0,-1.2157055E2,1.8023694E2,4.7923508E2,2.1262459E1,9.222532E1,-1.0680713E1,5.0691948E1,-3.5371452E1,2.1237144E2,-6.806296E1,3.1334929E1,6.026122E2,6.830724E1,-1.6457635E2,-2.2019377E2,1.3824117E2],"split_indices":[1,1,1,0,512,512,291,430,129,1,440,270,373,393,0,363,526,95,1,283,312,186,0,423,0,186,0,379,0,1,0,529,0,134,1,534,0,31,526,423,0,338,1,125,0,208,0,261,0,478,377,0,0,533,1,521,0,533,0,513,0,33,1,0,0,48,0,1,1,1,0,303,0,0,1,1,0,0,0,1,0,377,0,513,0,0,1,0,513,521,0,0,0,0,0,0,0,0,0,0,0,0,0,507,0,0,533,516,0,0,1,113,373,526,521,0,526,0,0,318,1,515,533,374,291,0,260,0,0,0,0,0,0,0,0,0,0,0,0,0,0,0,0,0,0,0,0,0,0,0,0,0,0,0,0,0,0,0,0,0,0,0,0,0,0,0,0,0,0,0,0,0,0,0,0,0,0,0,0,0,0,0,0,0,0,0,0,0,0,0,0,0,0,0,0],"split_type":[0,0,0,0,0,0,0,0,0,0,0,0,0,0,0,0,0,0,0,0,0,0,0,0,0,0,0,0,0,0,0,0,0,0,0,0,0,0,0,0,0,0,0,0,0,0,0,0,0,0,0,0,0,0,0,0,0,0,0,0,0,0,0,0,0,0,0,0,0,0,0,0,0,0,0,0,0,0,0,0,0,0,0,0,0,0,0,0,0,0,0,0,0,0,0,0,0,0,0,0,0,0,0,0,0,0,0,0,0,0,0,0,0,0,0,0,0,0,0,0,0,0,0,0,0,0,0,0,0,0,0,0,0,0,0,0,0,0,0,0,0,0,0,0,0,0,0,0,0,0,0,0,0,0,0,0,0,0,0,0,0,0,0,0,0,0,0,0,0,0,0,0,0,0,0,0,0,0,0,0,0,0,0,0,0,0,0,0,0,0,0,0,0,0,0],"sum_hessian":[5.192E3,2.651E3,2.541E3,7.46E2,1.905E3,1.554E3,9.87E2,1.61E2,5.85E2,1.515E3,3.9E2,1.228E3,3.26E2,9.84E2,3E0,1.25E2,3.6E1,5.3E2,5.5E1,7.5E2,7.65E2,3.85E2,5E0,1.214E3,1.4E1,2.85E2,4.1E1,9.83E2,1E0,1.23E2,2E0,3.2E1,4E0,4.6E2,7E1,8E0,4.7E1,7.35E2,1.5E1,7.61E2,4E0,3.63E2,2.2E1,1.107E3,1.07E2,2.64E2,2.1E1,7.45E2,2.38E2,4.6E1,7.7E1,3E1,2E0,4.21E2,3.9E1,1.7E1,5.3E1,6E0,2E0,6E0,4.1E1,7.15E2,2E1,1.4E1,1E0,7.36E2,2.5E1,3.45E2,1.8E1,1.4E1,8E0,1.105E3,2E0,2E0,1.05E2,2.6E2,4E0,1E0,2E1,7.44E2,1E0,4.2E1,4E0,7.4E1,3E0,1E0,2.9E1,3.85E2,3.6E1,2.7E1,1.2E1,1.5E1,2E0,3E0,5E1,4E0,2E0,1E0,1E0,1E0,5E0,3E0,3.8E1,7.08E2,7E0,1.4E1,6E0,7.24E2,1.2E1,1.4E1,1.1E1,1.64E2,1.81E2,8E0,1E1,1E0,1.3E1,6E0,2E0,1.097E3,8E0,3.6E1,6.9E1,1.3E2,1.3E2,2.93E2,4.51E2,3.9E1,3E0,1E0,3E0,1.9E1,5.5E1,2.7E1,2E0,3.1E2,7.5E1,6E0,3E1,2.6E1,1E0,6E0,6E0,9E0,6E0,1E0,1E0,1E0,2E0,2.9E1,2.1E1,1E0,1E0,1E0,2E0,8E0,3E1,6.64E2,4.4E1,1.3E1,1E0,5E0,1E0,5.7E1,6.67E2,3E0,1.1E1,9E0,2E0,1.52E2,1.2E1,1.72E2,9E0,7E0,1E0,8E0,2E0,1E1,3E0,1.082E3,1.5E1,4E0,4E0,3.4E1,2E0,6.5E1,4E0,1.2E2,1E1,1.28E2,2E0,5E0,2.88E2,4.49E2,2E0],"tree_param":{"num_deleted":"0","num_feature":"537","num_nodes":"195","size_leaf_vector":"1"}},{"base_weights":[2.0193813E1,-1.6828422E3,5.854252E2,-4.159245E2,-1.8793334E3,5.043061E2,5.1440127E3,2.2703198E2,-2.0838736E2,-1.9067325E3,3.920645E2,-1.5199591E3,6.275837E2,5.181264E2,8.696387E1,6.3932544E2,-1.8737241E3,-1.9831702E3,-3.3640253E2,-1.9622561E3,-2.1647609E2,8.265278E2,-5.0639703E2,5.249312E2,2.8541098E2,-2.0225063E3,-1.9245117E1,-2.0082816E3,1.8835798E3,-4.92925E2,8.774443E2,-2.0365723E3,3.457414E2,-2.9914303E1,-1.3980789E2,9.2000256E2,-9.392371E2,-5.47143E2,4.1452194E2,6.3360004E2,-1.2237472E2,-2.1067407E3,-1.4001693E1,-2.0202994E3,3.628257E2,2.663986E3,-1.1924209E2,-5.259084E2,3.7375423E1,2.0104997E2,1.6446034E2,-2.1794124E3,-1.2114034E3,-2.4661624E2,5.0191095E2,9.642579E2,-2.063741E3,-9.842706E2,2.0430063E2,-5.7953217E2,4.1308615E2,5.540517E2,2.9151776E2,-2.1842231E3,-2.3668653E1,-2.0343131E3,2.7415244E2,3.377076E2,-5.3751778E1,-5.4150525E2,7.3579593E0,3.925596E1,-2.5149935E1,-2.2070005E3,5.4192596E1,-1.3172855E3,5.8376514E1,-1.5460614E2,-1.24700005E2,6.0206726E1,-9.909167E0,9.3920575E2,5.139025E3,-2.09653E2,-2.1727083E1,-7.9976965E2,-1.852274E2,-6.7498645E2,8.919276E1,4.7096172E1,2.3537752E2,-2.327755E2,-5.1748425E1,-2.044072E2,2.8018417E2,-5.7867603E1,-2.5161482E1,-2.2565039E2,-3.6542465E1,-1.419127E2,4.7681187E1,-5.573706E0,-9.6662476E1,9.099517E1,4.5320108E2,5.321514E2,7.390645E1,-6.826446E1,-2.1036797E2,-7.34086E1,1.7063109E2],"categories":[],"categories_nodes":[],"categories_segments":[],"categories_sizes":[],"default_left":[0,0,0,0,0,0,0,0,0,0,0,0,0,0,0,0,0,0,0,0,0,0,0,0,0,0,0,0,0,0,0,0,0,0,0,0,0,0,0,0,0,0,0,0,0,0,0,0,0,0,0,0,0,0,0,0,0,0,0,0,0,0,0,0,0,0,0,0,0,0,0,0,0,0,0,0,0,0,0,0,0,0,0,0,0,0,0,0,0,0,0,0,0,0,0,0,0,0,0,0,0,0,0,0,0,0,0,0,0,0,0],"id":8,"left_children":[1,3,5,7,9,11,13,15,-1,17,-1,19,21,-1,-1,23,25,27,29,31,33,35,37,39,-1,41,-1,43,45,47,49,51,-1,53,-1,55,57,59,-1,61,-1,63,-1,65,-1,67,-1,69,-1,71,-1,73,75,77,79,81,83,85,-1,87,-1,89,-1,91,-1,93,-1,-1,-1,95,-1,-1,-1,97,-1,99,-1,101,-1,-1,-1,103,105,-1,-1,107,-1,109,-1,-1,-1,-1,-1,-1,-1,-1,-1,-1,-1,-1,-1,-1,-1,-1,-1,-1,-1,-1,-1,-1,-1],"loss_changes":[5.075882E9,3.2553728E8,1.4587923E9,1.9291285E8,1.9563238E8,9.731413E8,1.96288E6,1.15856136E8,0E0,1.346578E8,0E0,1.2828803E8,8.2878515E8,0E0,0E0,2.5119604E7,4.720264E6,1.1243366E8,1.1313945E7,8.134221E7,1.2919572E7,5.1719334E8,1.085833E8,2.2072446E7,0E0,2.576952E6,0E0,8.740813E7,2.556037E7,1.822728E6,2.967328E6,1.4278848E7,0E0,6.3551685E6,0E0,3.957596E8,2.5239152E7,8.750902E7,0E0,1.54568E7,0E0,1.71424E6,0E0,8.275456E7,0E0,1.9616872E7,0E0,5.38778E5,0E0,7.177443E5,0E0,1.2831104E7,7.051648E6,3.20138E6,1.0834335E6,2.9625037E8,1.748272E6,2.2175056E7,0E0,7.761227E7,0E0,1.3030248E7,0E0,1.891296E6,0E0,6.199859E7,0E0,0E0,0E0,2.24355E5,0E0,0E0,0E0,1.0926272E7,0E0,6.47118E6,0E0,2.9409758E6,0E0,0E0,0E0,2.975941E8,5.772096E6,0E0,0E0,1.7434136E7,0E0,7.455886E7,0E0,0E0,0E0,0E0,0E0,0E0,0E0,0E0,0E0,0E0,0E0,0E0,0E0,0E0,0E0,0E0,0E0,0E0,0E0,0E0,0E0,0E0,0E0],"parents":[2147483647,0,0,1,1,2,2,3,3,4,4,5,5,6,6,7,7,9,9,11,11,12,12,15,15,16,16,17,17,18,18,19,19,20,20,21,21,22,22,23,23,25,25,27,27,28,28,29,29,30,30,31,31,33,33,35,35,36,36,37,37,39,39,41,41,43,43,45,45,47,47,49,49,51,51,52,52,53,53,54,54,55,55,56,56,57,57,59,59,61,61,63,63,65,65,69,69,73,73,75,75,77,77,81,81,82,82,85,85,87,87],"right_children":[2,4,6,8,10,12,14,16,-1,18,-1,20,22,-1,-1,24,26,28,30,32,34,36,38,40,-1,42,-1,44,46,48,50,52,-1,54,-1,56,58,60,-1,62,-1,64,-1,66,-1,68,-1,70,-1,72,-1,74,76,78,80,82,84,86,-1,88,-1,90,-1,92,-1,94,-1,-1,-1,96,-1,-1,-1,98,-1,100,-1,102,-1,-1,-1,104,106,-1,-1,108,-1,110,-1,-1,-1,-1,-1,-1,-1,-1,-1,-1,-1,-1,-1,-1,-1,-1,-1,-1,-1,-1,-1,-1,-1],"split_conditions":[3E0,2E0,1E0,1E0,1E0,1E0,1E0,1E0,-2.0838736E2,1E0,3.920645E2,1E0,1E0,5.181264E2,8.696387E1,1E0,1E0,1E0,1E0,1E0,1E0,1E0,1E0,1E0,2.8541098E2,1E0,-1.9245117E1,1E0,1E0,1E0,1E0,1E0,3.457414E2,1E0,-1.3980789E2,1E0,1E0,1E0,4.1452194E2,1E0,-1.2237472E2,1E0,-1.4001693E1,1E0,3.628257E2,1E0,-1.1924209E2,1E0,3.7375423E1,1E0,1.6446034E2,1E0,1E0,1E0,1E0,1E0,1E0,1E0,2.0430063E2,1E0,4.1308615E2,1E0,2.9151776E2,1E0,-2.3668653E1,1E0,2.7415244E2,3.377076E2,-5.3751778E1,1E0,7.3579593E0,3.925596E1,-2.5149935E1,1E0,5.4192596E1,1E0,5.8376514E1,1E0,-1.24700005E2,6.0206726E1,-9.909167E0,1E0,1E0,-2.09653E2,-2.1727083E1,1E0,-1.852274E2,1E0,8.919276E1,4.7096172E1,2.3537752E2,-2.327755E2,-5.1748425E1,-2.044072E2,2.8018417E2,-5.7867603E1,-2.5161482E1,-2.2565039E2,-3.6542465E1,-1.419127E2,4.7681187E1,-5.573706E0,-9.6662476E1,9.099517E1,4.5320108E2,5.321514E2,7.390645E1,-6.826446E1,-2.1036797E2,-7.34086E1,1.7063109E2],"split_indices":[536,536,199,369,314,516,535,517,0,100,0,510,533,0,0,283,512,511,533,310,458,508,445,346,0,367,0,37,477,528,510,512,0,423,0,367,323,291,0,155,0,333,0,443,0,99,0,535,0,507,0,276,441,329,533,445,529,369,0,430,0,112,0,507,0,303,0,0,0,510,0,0,0,350,0,438,0,221,0,0,0,310,506,0,0,379,0,283,0,0,0,0,0,0,0,0,0,0,0,0,0,0,0,0,0,0,0,0,0,0,0],"split_type":[0,0,0,0,0,0,0,0,0,0,0,0,0,0,0,0,0,0,0,0,0,0,0,0,0,0,0,0,0,0,0,0,0,0,0,0,0,0,0,0,0,0,0,0,0,0,0,0,0,0,0,0,0,0,0,0,0,0,0,0,0,0,0,0,0,0,0,0,0,0,0,0,0,0,0,0,0,0,0,0,0,0,0,0,0,0,0,0,0,0,0,0,0,0,0,0,0,0,0,0,0,0,0,0,0,0,0,0,0,0,0],"sum_hessian":[5.269E3,1.312E3,3.957E3,1.77E2,1.135E3,3.89E3,6.7E1,1.29E2,4.8E1,1.131E3,4E0,2.22E2,3.668E3,6.6E1,1E0,1.09E2,2E1,1.078E3,5.3E1,1.65E2,5.7E1,3.121E3,5.47E2,1.06E2,3E0,1.8E1,2E0,1.072E3,6E0,4.8E1,5E0,1.64E2,1E0,5.1E1,6E0,2.965E3,1.56E2,5.44E2,3E0,1.01E2,5E0,1.7E1,1E0,1.071E3,1E0,5E0,1E0,4.7E1,1E0,4E0,1E0,1.37E2,2.7E1,3.7E1,1.4E1,2.923E3,4.2E1,1.55E2,1E0,5.42E2,2E0,1E2,1E0,1.6E1,1E0,1.069E3,2E0,4E0,1E0,4.6E1,1E0,3E0,1E0,1.36E2,1E0,2.6E1,1E0,3.6E1,1E0,1.2E1,2E0,2.908E3,1.5E1,4.1E1,1E0,1.31E2,2.4E1,5.1E2,3.2E1,9.8E1,2E0,1.4E1,2E0,1.068E3,1E0,3.9E1,7E0,1.32E2,4E0,2.5E1,1E0,3.4E1,2E0,2.887E3,2.1E1,1.4E1,1E0,1.23E2,8E0,4.99E2,1.1E1],"tree_param":{"num_deleted":"0","num_feature":"537","num_nodes":"111","size_leaf_vector":"1"}},{"base_weights":[3.6052536E1,1.2124845E3,-8.555112E2,-5.1234595E2,1.4422235E3,-1.7842555E3,-3.4570773E2,5.2172626E2,-9.9497626E2,2.7700667E3,1.2227451E3,-1.7961017E3,3.5073154E2,-4.783919E2,3.880045E3,7.6140753E2,-2.3662674E2,-1.0716272E3,4.2411826E2,2.3228606E3,4.707427E3,1.1654232E3,7.070668E2,-1.8096136E3,2.604448E2,-1.3521552E2,-1.1461891E3,4.1394952E2,2.0186685E3,9.999158E2,-7.56625E2,-2.8378815E2,-1.6343037E3,2.4512195E3,-1.3592928E2,5.2131997E3,3.112197E3,1.1216533E3,8.2285693E2,-1.853792E3,-4.3886276E2,-1.8961575E2,4.9404703E2,-1.2513633E3,6.330258E2,2.338781E2,2.8858105E2,1.2379816E3,-5.0188855E2,1.2978154E2,-1.17954056E2,3.725541E2,-1.76434E2,-1.7750435E3,2.7712128E2,2.319479E3,7.240568E2,5.480462E3,1.4170415E2,-1.18170166E2,3.5588022E2,1.0693458E3,6.385346E2,-1.8637433E3,2.7084467E2,1.5897832E2,-5.921043E2,-2.5953357E2,3.2812075E3,-1.1394098E3,-2.6262183E2,-4.3994595E1,8.253874E1,-2.6740002E2,1.6978145E3,1.9092735E2,-1.4622075E3,8.517804E2,-4.8436285E2,-2.1135366E3,1.6595544E2,2.6615337E3,9.172936E2,6.0180733E1,5.598947E2,-3.027064E1,1.4447949E1,1.0181102E3,5.3683296E3,-1.9526385E2,-1.892112E3,-2.3924289E2,-1.1251508E3,-3.1876398E2,3.850813E3,3.7874907E3,1.9940561E2,-5.7337976E2,-1.4114121E3,-6.0875668E1,3.4513184E1,1.8842017E2,-1.2474487E2,-5.02745E1,-2.0282796E2,1.0152469E2,-1.6225157E2,-6.2595985E1,7.8185905E1,-2.1875667E2,1.417022E2,-3.76524E1,5.3049408E1,2.7471222E2,-1.3469241E2,4.462917E0,1.865143E2,9.5097984E1,4.1251367E2,5.6631323E2,1.9958985E0,-5.771399E1,2.2255017E2,-1.9093352E2,6.9050095E1,-4.3850567E1,1.6332276E0,-1.8885986E1,-1.3680661E2,-2.068488E1,-1.6115479E2,5.6677803E1,3.9850928E2,4.2571036E2,1.1450238E2,-7.303534E1,3.738746E2,-1.4627957E2,1.795636E2],"categories":[],"categories_nodes":[],"categories_segments":[],"categories_sizes":[],"default_left":[0,0,0,0,0,0,0,0,0,0,0,0,0,0,0,0,0,0,0,0,0,0,0,0,0,0,0,0,0,0,0,0,0,0,0,0,0,0,0,0,0,0,0,0,0,0,0,0,0,0,0,0,0,0,0,0,0,0,0,0,0,0,0,0,0,0,0,0,0,0,0,0,0,0,0,0,0,0,0,0,0,0,0,0,0,0,0,0,0,0,0,0,0,0,0,0,0,0,0,0,0,0,0,0,0,0,0,0,0,0,0,0,0,0,0,0,0,0,0,0,0,0,0,0,0,0,0,0,0,0,0,0,0,0,0,0,0,0,0],"id":9,"left_children":[1,3,5,7,9,11,13,15,17,19,21,23,-1,25,27,29,-1,31,-1,33,35,37,-1,39,-1,41,43,-1,45,47,49,51,53,55,-1,57,59,61,-1,63,65,67,-1,69,-1,-1,71,73,75,-1,-1,77,-1,79,-1,81,-1,83,-1,85,-1,87,-1,89,-1,-1,91,93,95,97,-1,-1,-1,99,101,-1,103,105,107,109,111,113,115,-1,-1,-1,-1,117,119,121,123,125,127,129,131,133,-1,135,137,-1,-1,-1,-1,-1,-1,-1,-1,-1,-1,-1,-1,-1,-1,-1,-1,-1,-1,-1,-1,-1,-1,-1,-1,-1,-1,-1,-1,-1,-1,-1,-1,-1,-1,-1,-1,-1,-1,-1,-1],"loss_changes":[5.4131645E9,8.831603E8,1.3888909E9,1.3229576E8,5.655918E8,7.77879E7,1.0678962E9,6.243701E7,8.132781E7,2.1810893E8,5.496799E8,7.120384E7,0E0,4.2182266E8,1.1285312E7,3.0478668E7,0E0,7.841901E7,0E0,1.1489997E8,7.875584E6,4.9935283E8,0E0,6.1166336E7,0E0,3.3845254E8,5.0728864E8,0E0,4.73694E6,2.6271112E7,1.3487674E7,7.614206E7,7.43193E7,1.0646336E8,0E0,1.9964032E7,2.537384E7,4.453052E8,0E0,5.5675904E7,1.276119E7,2.9484534E8,0E0,8.913011E7,0E0,0E0,2.2913342E6,4.313652E7,3.1052944E7,0E0,0E0,2.341202E7,0E0,6.772086E7,0E0,1.0014771E8,0E0,1.1746176E7,0E0,2.816597E5,0E0,3.531474E8,0E0,4.6731776E7,0E0,0E0,5.854013E6,2.911886E8,5.23392E5,8.690541E7,0E0,0E0,0E0,3.7661985E6,3.0503248E7,0E0,2.843648E6,1.7854016E7,4.7436705E6,2.8940224E7,3.7616255E6,6.744166E7,3.78788E7,0E0,0E0,0E0,0E0,3.3337395E8,2.9720192E7,2.0129768E7,4.6497024E7,1.18648E6,2.436852E6,1.687525E8,2.970224E6,8.854288E6,0E0,1.3406429E8,6.902618E7,0E0,0E0,0E0,0E0,0E0,0E0,0E0,0E0,0E0,0E0,0E0,0E0,0E0,0E0,0E0,0E0,0E0,0E0,0E0,0E0,0E0,0E0,0E0,0E0,0E0,0E0,0E0,0E0,0E0,0E0,0E0,0E0,0E0,0E0,0E0,0E0,0E0,0E0,0E0,0E0],"parents":[2147483647,0,0,1,1,2,2,3,3,4,4,5,5,6,6,7,7,8,8,9,9,10,10,11,11,13,13,14,14,15,15,17,17,19,19,20,20,21,21,23,23,25,25,26,26,28,28,29,29,30,30,31,31,32,32,33,33,35,35,36,36,37,37,39,39,40,40,41,41,43,43,46,46,47,47,48,48,51,51,53,53,55,55,57,57,59,59,61,61,63,63,66,66,67,67,68,68,69,69,73,73,74,74,76,76,77,77,78,78,79,79,80,80,81,81,82,82,87,87,88,88,89,89,90,90,91,91,92,92,93,93,94,94,95,95,97,97,98,98],"right_children":[2,4,6,8,10,12,14,16,18,20,22,24,-1,26,28,30,-1,32,-1,34,36,38,-1,40,-1,42,44,-1,46,48,50,52,54,56,-1,58,60,62,-1,64,66,68,-1,70,-1,-1,72,74,76,-1,-1,78,-1,80,-1,82,-1,84,-1,86,-1,88,-1,90,-1,-1,92,94,96,98,-1,-1,-1,100,102,-1,104,106,108,110,112,114,116,-1,-1,-1,-1,118,120,122,124,126,128,130,132,134,-1,136,138,-1,-1,-1,-1,-1,-1,-1,-1,-1,-1,-1,-1,-1,-1,-1,-1,-1,-1,-1,-1,-1,-1,-1,-1,-1,-1,-1,-1,-1,-1,-1,-1,-1,-1,-1,-1,-1,-1,-1,-1],"split_conditions":[-9.513877E-2,3E0,3E0,-8.317117E-1,-1.3841413E0,1E0,1E0,1E0,1E0,1E0,1E0,1E0,3.5073154E2,6.4143413E-1,6.4143413E-1,1E0,-2.3662674E2,2E0,4.2411826E2,1E0,-1.0986723E0,1E0,7.070668E2,1E0,2.604448E2,1E0,1E0,4.1394952E2,1.1803172E0,1E0,-2.109131E0,1E0,1E0,1E0,-1.3592928E2,1E0,-1.0517819E0,1E0,8.2285693E2,1E0,-8.001465E-1,1E0,4.9404703E2,1E0,6.330258E2,2.338781E2,1.222402E0,-1.5682846E0,-1.9796873E0,1.2978154E2,-1.17954056E2,-2.79282E-1,-1.76434E2,1E0,2.7712128E2,-6.545242E-1,7.240568E2,-2.109131E0,1.4170415E2,-1.5682846E0,3.5588022E2,1E0,6.385346E2,1E0,2.7084467E2,1.5897832E2,6.597173E-1,1E0,-8.642203E-1,7.762801E-4,-2.6262183E2,-4.3994595E1,8.253874E1,1E0,1E0,1.9092735E2,-4.6521515E-1,1E0,1E0,1E0,-1.739705E-1,1E0,1E0,6.0180733E1,5.598947E2,-3.027064E1,1.4447949E1,1E0,8.941693E-1,1E0,1E0,2.090162E-1,8.900446E-2,1E0,-1.7785829E0,2.7314767E-1,1.9940561E2,1E0,1E0,-6.0875668E1,3.4513184E1,1.8842017E2,-1.2474487E2,-5.02745E1,-2.0282796E2,1.0152469E2,-1.6225157E2,-6.2595985E1,7.8185905E1,-2.1875667E2,1.417022E2,-3.76524E1,5.3049408E1,2.7471222E2,-1.3469241E2,4.462917E0,1.865143E2,9.5097984E1,4.1251367E2,5.6631323E2,1.9958985E0,-5.771399E1,2.2255017E2,-1.9093352E2,6.9050095E1,-4.3850567E1,1.6332276E0,-1.8885986E1,-1.3680661E2,-2.068488E1,-1.6115479E2,